-0.025110764428973198 -0.020532911643385887 0.01506839506328106 0.015276173129677773 -0.02881789393723011 -0.012633894570171833 -0.021351445466279984 -0.02520182356238365 0.015164674259722233 -0.03557954356074333 0.011980061419308186 -0.034969113767147064 0.001810039859265089 -0.03536829352378845 -0.010683847591280937 -0.009082237258553505 0.030577443540096283 -0.026195595040917397 -0.0016721913125365973 0.003461531363427639 0.01375171635299921 0.020397642627358437 0.03321799635887146 0.0016581204254180193 0.024232853204011917 0.02598634921014309 0.0005475666257552803 0.030667711049318314 0.003955883905291557 -0.0312964990735054 0.016875799745321274 0.033290691673755646 0.023017164319753647 -0.021218368783593178 -5.2068917284486815e-05 0.022357366979122162 -0.017895912751555443 -0.03423576429486275 -0.020791109651327133 0.024954166263341904 -0.022314799949526787 0.014833323657512665 -0.01593303680419922 0.008187124505639076 0.03155219554901123 0.021085811778903008 0.03278835490345955 0.02727638930082321 0.011232228018343449 -0.03363104164600372 0.02797183021903038 0.01653207652270794 0.027691710740327835 -0.018915671855211258 -0.013828235678374767 0.018311820924282074 0.010221226140856743 0.005471783224493265 0.02815144509077072 0.012029294855892658 -0.010696688666939735 0.03153267130255699 0.02648889645934105 -0.008485913276672363 -0.02219504304230213 0.016963444650173187 -0.0025783011224120855 0.008315691724419594 0.006593483034521341 -0.005961073562502861 0.01991458609700203 0.03386714681982994 0.011021653190255165 0.008622076362371445 -0.03186638280749321 0.018760763108730316 -0.03407160937786102 0.006044592242687941 -0.02752002701163292 -0.03229604288935661 -0.0029531889595091343 -0.03184736892580986 0.010073402896523476 0.013859115540981293 0.028308801352977753 -0.015770550817251205 0.009172176010906696 0.03368237242102623 0.0013874855358153582 -0.002259718719869852 0.03465976193547249 -0.0003796432865783572 -0.029053498059511185 0.01086160633713007 0.016689110547304153 -0.0025556045584380627 0.00624197768047452 -0.01896342635154724 0.0007888291729614139 -0.02913632243871689 0.02374044992029667 0.023219531401991844 0.03521629050374031 0.020520275458693504 -0.00988865364342928 -0.004649481736123562 -0.02990848384797573 -0.01835184544324875 -0.009327012114226818 0.003991318866610527 -0.02039097622036934 0.025495300069451332 -0.02171451784670353 0.028704142197966576 0.02539197914302349 -0.0072784810326993465 0.025454364717006683 -0.02941596694290638 -0.01332834456115961 -0.025313319638371468 -0.005780910141766071 -0.011259118095040321 0.025069603696465492 0.009147082455456257 0.03465522080659866 -0.03228574991226196 0.0201159305870533 0.03418378904461861 -0.0052941786125302315 0.023092640563845634 -0.02645411342382431 0.026604223996400833 0.017197784036397934 -0.01481105200946331 0.021060774102807045 0.017496522516012192 0.005054665729403496 -0.014048011042177677 0.0025741884019225836 -0.011666583828628063 -0.02708878368139267 0.03076132759451866 0.000303494103718549 -0.0017587756738066673 -0.006619240622967482 0.008534291759133339 -0.012495424598455429 0.01316495519131422 -0.029561461880803108 0.008727316744625568 0.03214087709784508 0.011215904727578163 0.00687775481492281 -0.03185828775167465 0.006654501426964998 -0.033263325691223145 0.021625937893986702 0.00820403452962637 0.010915390215814114 -0.03565671667456627 -0.028326550498604774 -0.01872348040342331 -0.012382001616060734 0.014413242228329182 0.0023267525248229504 -0.032767072319984436 0.005513387266546488 -0.004211421590298414 -0.03288291022181511 -0.012234599329531193 -0.0011342167854309082 -0.0042054783552885056 0.012772360816597939 0.025047622621059418 0.024722428992390633 -0.021143058314919472 0.029836928471922874 0.015153400599956512 -0.02888781763613224 0.011411931365728378 0.014713326469063759 -0.03345709294080734 -0.015133832581341267 0.031259674578905106 -0.018861664459109306 -0.01959942653775215 0.006099590566009283 0.02556927315890789 0.002575384918600321 0.0034490569960325956 0.02570331282913685 0.006575333420187235 -0.007962350733578205 -0.011003703810274601 -0.022486748173832893 0.011311659589409828 0.01056159008294344 -0.025655202567577362 0.026783127337694168 -0.027021128684282303 0.020997904241085052 -0.00013833813136443496 -0.004748391453176737 -0.030872371047735214 0.011108568869531155 0.0022141807712614536 0.007816408760845661 0.020880350843071938 0.0057064383290708065 -0.018483120948076248 -0.012688002549111843 0.028867535293102264 0.0022003352642059326 -0.009748514741659164 0.03352856636047363 -0.0323140025138855 -0.008910170756280422 0.008982543833553791 -0.014826426282525063 0.01695193164050579 -0.02888386696577072 -0.01973985880613327 -0.02681884728372097 0.003160906722769141 0.009788441471755505 -0.026385637000203133 0.030318256467580795 -0.02167031727731228 0.006867119576781988 -0.033076927065849304 -0.010911550372838974 0.0330202542245388 0.008551159873604774 -0.008460130542516708 -0.009541383944451809 0.002855407539755106 -0.005852384492754936 -0.022985441610217094 0.033294398337602615 0.029851650819182396 -0.0013784852344542742 0.015518657863140106 -0.01850338652729988 -0.030801672488451004 0.028280340135097504 -0.02174902893602848 0.01068068016320467 -0.001842341385781765 0.018681764602661133 -0.0072720651514828205 -0.034289874136447906 0.013061911799013615 0.02157425507903099 0.014522169716656208 0.0034288596361875534 0.031448423862457275 0.027798185124993324 0.028585167601704597 0.030235901474952698 0.01740242913365364 0.0021006721071898937 -0.028259623795747757 0.034936919808387756 -0.02404666133224964 -0.014256933704018593 0.0022871410474181175 0.0008915237267501652 0.0064469194039702415 0.010519466362893581 0.00018874663510359824 -0.012645704671740532 -0.001979542663320899 -0.009577577002346516 0.0033283191733062267 0.02110750414431095 0.010153800249099731 0.0067932396195828915 -0.021318407729268074 0.0031909432727843523 -0.023451009765267372 -0.01654726266860962 0.015174904838204384 -0.010039768181741238 -0.004452820401638746 0.028120238333940506 0.018626689910888672 0.03213176876306534 0.019188780337572098 -0.010677393525838852 0.010252910666167736 0.011249874718487263 0.010940165258944035 -0.013206342235207558 0.017099529504776 0.027747742831707 0.009032139554619789 -0.02280077524483204 -0.009555263444781303 0.020527172833681107 0.031652309000492096 -0.03299300745129585 -0.020460624247789383 0.015627793967723846 0.025297166779637337 0.03225450962781906 0.0229837354272604 0.034934572875499725 0.0011551210191100836 0.015708446502685547 0.028425877913832664 0.030472228303551674 0.02271023578941822 0.014515400864183903 0.029399916529655457 0.006762568838894367 -0.009350832551717758 0.029146676883101463 0.034188415855169296 -0.0339072160422802 0.029737474396824837 -0.027308525517582893 -0.0023721158504486084 0.016440030187368393 -0.011550397612154484 -0.008491605520248413 -0.0005783907254226506 -0.015641361474990845 0.0030334123875945807 0.027571335434913635 0.010951613076031208 0.023218097165226936 0.02466733194887638 0.0022019916214048862 0.012293522246181965 0.03510209172964096 -0.032789140939712524 -0.01004682295024395 0.005993192084133625 -0.007691239006817341 0.014264793135225773 -0.021109573543071747 -0.005435858853161335 0.0067676519975066185 0.02835897170007229 0.031317420303821564 0.002219025744125247 0.020595550537109375 -0.008256673812866211 -0.007811823394149542 -0.035049133002758026 0.016413647681474686 -0.01588921621441841 -0.020053941756486893 -0.03033166006207466 0.0022191533353179693 -0.02996121719479561 -0.013686606660485268 0.002115011215209961 -0.012253757566213608 -0.016835400834679604 -0.0224931500852108 0.005404770839959383 0.02607017010450363 0.028664084151387215 -0.010460765101015568 -0.01238168217241764 -0.0031205543782562017 0.00631835637614131 0.030899036675691605 -0.0053554861806333065 -0.029368985444307327 -0.006831352598965168 -0.01717071607708931 -0.011133113875985146 -0.004314674064517021 0.020550290122628212 -0.004370229784399271 -0.031039902940392494 -0.0030990329105407 -0.034492313861846924 0.03399649262428284 0.034562546759843826 -0.03398748114705086 -0.001087950891815126 0.00922501552850008 -0.02310897223651409 -0.034797728061676025 -0.014466171152889729 -0.01677178218960762 0.033235229551792145 0.03032504767179489 0.0214389618486166 0.008646169677376747 -0.006934553850442171 -0.02406608685851097 -0.010353544726967812 0.024353833869099617 -0.020952489227056503 -0.009857646189630032 -0.010774416849017143 0.01241972204297781 -0.0014058309607207775 0.010664374567568302 0.002164913108572364 0.027376584708690643 -0.010554919019341469 0.017090223729610443 0.00997986551374197 -0.019513756036758423 0.01510603167116642 0.007012218702584505 0.02548224665224552 0.02164161391556263 -0.017515715211629868 -0.009511339478194714 -0.009452496655285358 -0.02447117306292057 -0.03182746469974518 0.029751472175121307 0.00723335612565279 -0.0127526530995965 -0.023734506219625473 0.01733735203742981 -0.008389848284423351 -0.009892051108181477 -0.009533588774502277 0.01020753849297762 -0.003131334437057376 0.0138888880610466 -0.011188728734850883 0.005093608982861042 -0.011543414555490017 0.03311833366751671 -0.025339936837553978 0.026688644662499428 0.004658843856304884 0.0026107134763151407 -0.0002456264919601381 0.025821128860116005 -0.033814169466495514 -0.029812026768922806 -0.03287142142653465 0.0013464392395690084 0.03312066197395325 0.01126240473240614 0.02047136053442955 0.025329850614070892 0.0007853763527236879 0.00568159157410264 0.02374330349266529 -0.03459028899669647 -0.023768169805407524 0.03532367944717407 -0.02226770855486393 0.00830944161862135 0.035136301070451736 -0.013822752051055431 0.00017207009659614414 0.005315086804330349 -0.02359563671052456 -0.0018462368752807379 -0.01940578781068325 0.0009959724266082048 -0.016055911779403687 -0.025027407333254814 0.022310011088848114 0.0022917562164366245 0.03480023145675659 0.009812427684664726 -0.0285057183355093 -0.018429327756166458 -0.018597198650240898 0.0335242934525013 0.005847386084496975 0.026622585952281952 0.029981307685375214 0.025017084553837776 0.023594431579113007 -0.03543072193861008 0.02290419302880764 -0.03298806771636009 0.026605261489748955 0.028575405478477478 0.0346401184797287 -0.00279833166860044 -0.0010115164332091808 -0.01644943095743656 -0.018111582845449448 0.008956807665526867 0.023412100970745087 0.033388651907444 -0.014740408398211002 -0.013566268607974052 0.012259186245501041 0.015808701515197754 0.006569419987499714 0.006951404735445976 -0.003939151763916016 -0.009350228123366833 0.01073079090565443 -0.019591093063354492 -0.0021527879871428013 -0.027748096734285355 -0.033870868384838104 0.02406802959740162 -0.014527346938848495 -0.03183918446302414 0.021410023793578148 -0.012755057774484158 -0.015578615479171276 0.027335112914443016 0.0294745322316885 -0.005123764276504517 -0.005071989260613918 0.03340054303407669 -0.0034216302447021008 0.03260954096913338 -0.016458023339509964 0.004062657244503498 0.015875471755862236 0.022800778970122337 -0.009981649927794933 0.03230556845664978 -0.015108641237020493 -0.03350593522191048 0.022142194211483 -0.017764117568731308 0.025772282853722572 0.022368717938661575 0.01992327906191349 -0.024939585477113724 0.02989273890852928 0.0038576170336455107 -0.028771379962563515 -0.011292985640466213 -0.019437236711382866 -0.021801788359880447 0.03449050709605217 0.0019526269752532244 0.025036247447133064 -0.012987298890948296 -0.021898441016674042 0.013162736780941486 0.006211583502590656 -0.00977205391973257 -0.01708410121500492 0.016992833465337753 -0.02614258974790573 0.01663798652589321 -0.017138367518782616 -0.011437935754656792 -0.007512437645345926 -0.002343901665881276 0.02989472821354866 -0.031497109681367874 -0.006866306532174349 -0.024217022582888603 0.02676405757665634 -0.007896032184362411 0.02275185100734234 -0.030687835067510605 -0.002344472100958228 0.024819323793053627 0.01980050653219223 0.022347498685121536 -0.01715192198753357 -0.03081849403679371 -0.02293219417333603 -0.0334012433886528 -0.035196270793676376 -0.013957369141280651 0.014263170771300793 -0.02584160678088665 -0.0007575920899398625 -0.03288581594824791 -0.03289859741926193 -0.023443274199962616 -0.03363887965679169 -0.026868630200624466 -0.031172767281532288 0.021646972745656967 0.017968719825148582 -0.010429923422634602 -0.0024988013319671154 0.013062733225524426 0.029687652364373207 -0.02835666388273239 -0.005600780714303255 -0.01795293763279915 -0.018977046012878418 0.02910773456096649 0.006475734058767557 0.007955312728881836 -0.02376851998269558 -0.00902065634727478 -0.03486564755439758 0.027511414140462875 0.03202509135007858 -0.033451326191425323 0.029999112710356712 -0.02149355597794056 -0.02392200566828251 0.012739364989101887 -0.016219565644860268 -0.0003744491550605744 0.009943579323589802 0.02448415942490101 0.02772470936179161 0.01203537080436945 0.0042090630158782005 -0.007826720364391804 -0.003042004071176052 -0.0004510113503783941 -0.02830047346651554 -0.007533567491918802 0.02575291134417057 -0.008131636306643486 0.0009694653563201427 0.030132928863167763 0.03429313376545906 -0.029500162228941917 0.014967722818255424 -0.013530242256820202 0.006438025739043951 -0.02250484563410282 0.017713261768221855 0.02880225144326687 -0.002306750975549221 -0.03495463356375694 -0.007745747454464436 -0.008078912273049355 0.03088916838169098 0.03341170772910118 0.008860371075570583 -0.0035830014385282993 -0.00018698829808272421 0.029157869517803192 -0.019089847803115845 0.02507670596241951 -0.015090913511812687 -0.007161455694586039 -0.011853614822030067 -0.014554650522768497 0.023549873381853104 0.019885553047060966 0.006536394823342562 -0.004895052872598171 0.012551129795610905 -0.0330357626080513 0.02895996905863285 0.016113508492708206 -0.0228554867208004 0.023842867463827133 -0.0330815427005291 0.018092071637511253 0.0015214213635772467 -0.01756787858903408 -0.020404189825057983 -0.02245314233005047 0.024144059047102928 -0.034395985305309296 0.004588450770825148 0.011763236485421658 -0.02659120038151741 0.02137555554509163 -0.008386706002056599 -0.033630844205617905 -0.002767477883026004 0.015714794397354126 0.014901800081133842 0.027332298457622528 0.013103749603033066 0.0051648663356900215 -0.02298751100897789 0.022708527743816376 -0.014606301672756672 0.01756041869521141 -0.02149984799325466 0.01730191707611084 0.000586092472076416 0.009723719209432602 0.02230856381356716 -0.0013684545410797 -0.008666392415761948 -0.021430838853120804 0.018779922276735306 -0.02097327448427677 0.01709010824561119 0.02852834202349186 -0.017476581037044525 -0.01812928169965744 -0.01724241115152836 0.012586874887347221 -0.02024463750422001 0.005084450822323561 -0.010967600159347057 -0.012784374877810478 -0.006866531912237406 0.0035836442839354277 -0.020249217748641968 -0.010209795087575912 0.016835639253258705 0.005232598166912794 -0.008234578184783459 0.03358624503016472 0.014664705842733383 -0.011695679277181625 -0.007075143977999687 0.034044936299324036 -0.0033325597178190947 -0.034061700105667114 0.028710579499602318 -0.024188021197915077 -0.011042523197829723 -0.01214580051600933 0.007798203732818365 -0.021040411666035652 -0.028877446427941322 -0.0076132589019834995 -0.006444445811212063 0.0007075326866470277 -0.0032139932736754417 0.029525533318519592 0.026710959151387215 0.022526375949382782 -0.02192709408700466 -0.008273410610854626 0.002170098712667823 0.007979465648531914 -0.02854192443192005 -0.002844210248440504 0.01925262063741684 -0.004575576167553663 0.02503315918147564 -0.03223348781466484 0.02341330237686634 0.03364101052284241 0.005576006136834621 0.017280081287026405 0.001346417935565114 -0.01640462502837181 0.02326183393597603 -0.031129229813814163 -0.012706241570413113 0.007001042831689119 -0.011052864603698254 -0.004485880024731159 -0.0032884436659514904 -0.007235825527459383 -0.021688854321837425 -0.01902797818183899 0.00765003077685833 0.03242432326078415 0.015039836056530476 0.00919391866773367 0.028891142457723618 -0.02084553800523281 0.009831569157540798 0.02375151962041855 -0.009242666885256767 0.02993066981434822 0.026349056512117386 -0.03377165272831917 -0.026423867791891098 -0.012972117401659489 0.02994970977306366 0.0005316181341186166 -0.008118923753499985 0.029261872172355652 0.020280689001083374 -0.01589054800570011 0.005669304635375738 -0.008366644382476807 -0.026838235557079315 -0.016754258424043655 -0.003248023334890604 -0.020814262330532074 -0.017987072467803955 0.004554412327706814 0.01265502069145441 -0.014377164654433727 -0.02426730841398239 -0.03440123423933983 -0.02783692069351673 0.01935451477766037 -0.027451129630208015 0.001200348138809204 -0.013536270707845688 0.017822304740548134 -0.000882008287589997 -0.0010159271769225597 0.016778908669948578 0.024762414395809174 -0.034933339804410934 -0.030651310458779335 -0.030983854085206985 -0.017736274749040604 0.020131563767790794 0.007321613375097513 0.011170822195708752 -0.0077833496034145355 -0.00640180753543973 -0.00799795612692833 -0.002498252084478736 0.027266355231404305 0.007251054514199495 0.018073279410600662 0.00412949500605464 -0.0034357609692960978 0.017927605658769608 -0.006780778057873249 -0.02192063070833683 -0.02151472680270672 -0.02677617408335209 -0.021666301414370537 -0.008947918191552162 -0.028563126921653748 -0.0054851858876645565 -0.007144157774746418 -0.008160403929650784 -0.03102152794599533 -0.017672104761004448 -0.022291840985417366 0.02100284770131111 -0.007175697013735771 -0.010650920681655407 0.010022342205047607 -0.01150701753795147 -0.008118122816085815 0.022279106080532074 -0.02683671936392784 -0.0003180333587806672 -0.02951502427458763 -0.006311663892120123 -0.030772201716899872 -0.0013897547032684088 -0.02877180278301239 0.028639275580644608 -0.01352178305387497 0.008322571404278278 0.030112668871879578 -0.01738784648478031 0.0072236149571835995 0.0055811661295592785 -0.019864249974489212 -0.009280754253268242 -0.010092786513268948 -0.0248560793697834 -0.0026495542842894793 0.005294757429510355 -0.004007820971310139 -0.020873019471764565 0.0034127747640013695 0.015925800427794456 -0.014686249196529388 0.011305234394967556 0.023539884015917778 -0.01728832721710205 -0.013477624393999577 0.027877077460289 0.020196503028273582 -0.01548115722835064 0.001693802303634584 -0.022113289684057236 -0.031386684626340866 0.026754772290587425 -0.005578313954174519 -0.012547055259346962 0.0035611733328551054 -0.034322597086429596 -0.01967625692486763 0.0005023096455261111 0.03343753516674042 0.03541859984397888 -0.01272818073630333 -0.013811946846544743 0.031945135444402695 0.020834272727370262 -0.02689717710018158 0.027199115604162216 0.030152369290590286 -0.03397895023226738 0.011785997077822685 0.0157843716442585 -0.027827110141515732 -0.014605756849050522 0.015175769105553627 0.022827737033367157 0.03319518268108368 0.002288533141836524 -0.02285984717309475 -0.008199636824429035 -0.018676137551665306 -0.027483167126774788 -0.009652887471020222 -0.0017542329151183367 -0.005089291837066412 0.028591539710760117 0.012802911922335625 0.03523881733417511 -0.01386096328496933 0.028564611449837685 -0.007289465516805649 0.03154711425304413 -0.001972547732293606 -0.0031214102637022734 0.005626367870718241 -0.030617566779255867 0.010829483158886433 -0.002650065114721656 -0.02139059267938137 -0.035369839519262314 0.02847474440932274 -0.014570113271474838 -0.01771961897611618 -0.015331477858126163 -0.030291490256786346 0.015360773541033268 -0.004181325435638428 -0.030094215646386147 0.01701899617910385 0.028204020112752914 0.026192350313067436 -0.02093074657022953 0.029533132910728455 0.0060137128457427025 0.00741901621222496 -0.020427372306585312 -0.02618907205760479 -0.021188778802752495 0.006901822052896023 -0.0018298455979675055 0.016810409724712372 0.02220972254872322 0.0230275746434927 -0.018038470298051834 -0.03259555622935295 0.027219075709581375 0.0253862626850605 0.008167186751961708 0.008844065479934216 0.010500789619982243 -0.021617664024233818 0.013786542229354382 0.024486036971211433 0.007417964283376932 -0.03180496022105217 0.029441699385643005 -0.007760810200124979 -0.011573540978133678 0.010431809350848198 -0.002592529635876417 -0.03392405062913895 0.031093956902623177 0.017008058726787567 -0.02224799245595932 -0.005506651941686869 0.009091961197555065 -0.03143364191055298 0.009095009416341782 0.03029068559408188 -0.0046027302742004395 0.012107730843126774 -0.030217930674552917 0.02866891585290432 -0.028674449771642685 0.023419806733727455 -0.014595134183764458 -0.007385982200503349 -0.027035322040319443 -0.007651682943105698 0.03507184609770775 -0.015271646901965141 -0.028163673356175423 -0.0013396443100646138 0.026136454194784164 0.011232253164052963 -0.0024458682164549828 0.027032721787691116 0.008356188423931599 0.02511090226471424 0.003891417058184743 0.03145083039999008 0.008542696014046669 0.005879691801965237 0.023458827286958694 -0.023412790149450302 0.015190006233751774 -0.03428332880139351 -0.03245232626795769 0.0026761507615447044 0.021625299006700516 0.022129429504275322 -0.004833966493606567 0.026154974475502968 -0.01434146985411644 0.025243563577532768 -0.014732416719198227 0.014142923057079315 0.025003012269735336 0.014021269977092743 -0.001349185244180262 -0.03401114419102669 0.018804870545864105 0.021821746602654457 0.02752062864601612 -0.01768621802330017 0.012413562275469303 0.024846350774168968 0.02493935450911522 0.01563355326652527 0.0013512586010619998 0.027847329154610634 -0.007280000951141119 -0.008916501887142658 0.014184999279677868 0.023986050859093666 0.00935126282274723 0.028147736564278603 0.011527628637850285 0.020520156249403954 -0.028864027932286263 -0.020207351073622704 0.024702949449419975 -0.03216301277279854 -0.03419044241309166 0.03130163997411728 0.009340840391814709 -0.012584737502038479 0.0326707661151886 0.0059327613562345505 0.0003625878307502717 -0.011796858161687851 0.020020533353090286 0.0006407499313354492 -0.006670747883617878 -0.026422781869769096 0.033264655619859695 -0.0021366265136748552 0.01411703322082758 0.018522974103689194 0.006473733112215996 -0.02613491378724575 -0.03315184637904167 0.03170302137732506 -0.028294704854488373 0.030136819928884506 0.021227246150374413 -0.017957650125026703 -0.008742788806557655 -0.004137805663049221 -0.025304369628429413 -0.007808421738445759 -0.010023143142461777 0.010464928112924099 0.003955845721065998 -0.028263289481401443 0.014285207726061344 0.030579853802919388 -0.015491635538637638 0.03012027218937874 -0.03561846911907196 0.006481652148067951 -0.02532835118472576 0.023252522572875023 0.015843072906136513 -0.018193505704402924 -0.010304417461156845 -0.027378402650356293 0.00036481450661085546 -0.01854335516691208 0.0011008977890014648 -0.01633966900408268 0.006478501483798027 -0.0009331788751296699 -0.03242965787649155 -0.014578398317098618 -0.028953557834029198 0.02980966866016388 -0.03439852595329285 0.029951676726341248 0.014292053878307343 0.03329889848828316 -0.017435675486922264 -0.032223332673311234 0.02536093071103096 0.010236996226012707 -0.001920329756103456 0.00886506773531437 0.025604674592614174 -0.016303373500704765 -0.0118046710267663 -0.03087480738759041 -0.022050919011235237 0.025100423023104668 0.01202534418553114 0.02672402374446392 -0.02718742936849594 0.000446008809376508 -0.033666111528873444 -0.03475581482052803 -0.0123372171074152 0.0032257610000669956 0.004653364419937134 0.0025194501504302025 -0.016064811497926712 -0.021151956170797348 -0.01584460213780403 0.0017657536081969738 -0.025580156594514847 0.018013473600149155 -0.005617891438305378 -0.010870737954974174 -0.010205388069152832 0.03554088622331619 0.007749689742922783 0.02952084131538868 -0.024438519030809402 0.012356418184936047 0.008480008691549301 -0.02725444734096527 0.006446400191634893 0.03206123411655426 0.015165955759584904 -0.0016919715562835336 -0.034933432936668396 0.01882908307015896 0.031869035214185715 -0.0039280313067138195 -0.02961907722055912 0.022706640884280205 0.0023080536630004644 -0.011127523146569729 0.009847667068243027 0.014136817306280136 -0.01317641232162714 -0.007484776899218559 -0.01782979816198349 -0.032590191811323166 -0.014683226123452187 0.01203382108360529 -0.017676806077361107 -0.023828720673918724 0.011109216138720512 -0.014227045699954033 -0.02428351156413555 -0.0352974459528923 0.0056373183615505695 -0.003884869161993265 0.008318642154335976 -0.032557226717472076 -0.01755627617239952 -0.0027396210934966803 0.010323367081582546 0.004332466050982475 -0.022623548284173012 -0.015718111768364906 0.00740883219987154 0.022046323865652084 -0.012025420553982258 0.023374034091830254 -0.0032204859890043736 -0.0024828955065459013 0.0282415933907032 -0.007230116054415703 0.03407306596636772 0.014585521072149277 -0.020254604518413544 0.009423729032278061 0.018646245822310448 -0.01612960919737816 -0.034869205206632614 0.03397784382104874 0.02409072034060955 0.0027629053220152855 -0.01939389668405056 0.026533672586083412 -0.030698278918862343 -0.02643701061606407 -0.0036896937526762486 -0.008335296995937824 -0.03518587350845337 0.001631885883398354 -0.02340838499367237 0.004528807941824198 0.0048034703359007835 -0.033566609025001526 -0.01294959057122469 -0.022537853568792343 0.003655510488897562 0.0088539719581604 -0.012977192178368568 0.01680462807416916 -0.01125811692327261 -0.031331319361925125 -0.011811903677880764 0.0338573083281517 -0.010106283240020275 -0.03491317853331566 0.005497919861227274 -0.0018880708375945687 0.010834681801497936 -0.00842211116105318 0.01964091882109642 0.03021850436925888 0.015840377658605576 0.02794598415493965 -0.01613692380487919 -0.012057671323418617 0.018492383882403374 -0.02433437667787075 0.025521105155348778 0.011235092766582966 0.03161715343594551 -0.03379102051258087 0.0005648434162139893 -0.02487037144601345 0.01075789425522089 0.034026384353637695 -0.02080332115292549 0.025614267215132713 0.031431615352630615 -0.02179114893078804 0.019336126744747162 0.024895979091525078 0.02502102218568325 -0.0066567533649504185 -0.012263587675988674 0.03401133418083191 -0.014245562255382538 0.008537719026207924 -0.013873960822820663 0.03504070267081261 -0.0090602682903409 0.023895634338259697 -0.006968528497964144 0.012753589078783989 0.010894929058849812 0.03438877686858177 0.028748193755745888 0.012091292068362236 -0.0031851318199187517 0.029142381623387337 0.03325837478041649 -0.030763797461986542 -0.0008464966667816043 -0.02335871197283268 0.026490353047847748 -0.030359886586666107 0.009813321754336357 0.028208227828145027 -0.02823466993868351 -0.0033136906567960978 -0.010646756738424301 0.02106565423309803 -0.024999452754855156 -0.004308109171688557 -0.018728822469711304 -5.2975759899709374e-05 -0.02302548475563526 0.0010918634943664074 -0.0044699013233184814 -0.0061854212544858456 -0.008579352870583534 0.0023945400025695562 0.013658379204571247 0.010008114390075207 -0.001120601431466639 -0.031865205615758896 -0.002114142756909132 0.02072424255311489 0.01960228756070137 0.01589047536253929 0.021031832322478294 -0.022614339366555214 0.026477081701159477 -0.0007308381027542055 0.007911721244454384 -0.01405868399888277 0.017388183623552322 -0.022436823695898056 -0.02640433982014656 -0.0018787214066833258 -0.020568618550896645 0.022663390263915062 -0.004845491610467434 -0.0010202613193541765 -0.005502850282937288 -0.015944745391607285 0.01319802738726139 0.005523694679141045 -0.018374353647232056 0.01612970232963562 0.0019605415873229504 0.003545480314642191 -0.015529774129390717 -0.03367944434285164 0.008804628625512123 -0.012769440189003944 -0.002561058383435011 -0.0026770150288939476 -0.006608558818697929 0.011257610283792019 -0.03242124617099762 0.03058352693915367 0.007847338914871216 0.00724817207083106 -0.021990785375237465 -0.02001270279288292 -0.004367964807897806 0.007093076594173908 0.013109122402966022 0.0012403684668242931 0.03394296020269394 0.02246951311826706 -0.01374072302132845 -0.022850429639220238 0.013492929749190807 0.033408571034669876 0.012659613974392414 -0.0032411643769592047 0.005155929829925299 0.029559383168816566 -0.019117731600999832 0.008662296459078789 0.008685912936925888 -0.007460334803909063 0.026090653613209724 -0.0189240500330925 -0.0044738226570189 -0.013053975068032742 -0.029561124742031097 0.030051620677113533 0.0041335695423185825 -0.003451121971011162 -0.014467129483819008 -0.004828236065804958 0.014277897775173187 -0.023075636476278305 -0.024754950776696205 0.008020218461751938 -0.025189319625496864 -0.03344901278614998 0.03430651128292084 0.02628251537680626 0.025453688576817513 -0.03483247756958008 -0.020486509427428246 0.030565697699785233 0.026582511141896248 0.005713373888283968 0.02919396013021469 0.020579874515533447 0.023012805730104446 -0.013663003221154213 0.014257751405239105 -0.0020470833405852318 0.02354484051465988 0.028367865830659866 -0.020428283140063286 0.003953486680984497 -0.003699724329635501 -0.03163203224539757 -0.006087669637054205 0.02210446074604988 0.018251044675707817 0.02143823727965355 -0.028569133952260017 0.0036109688226133585 0.023092050105333328 0.030667131766676903 0.012946640141308308 0.001680638175457716 -0.016234662383794785 -0.012313476763665676 -0.013079026713967323 0.032611336559057236 -0.003277442418038845 -0.030754661187529564 -0.020763516426086426 -0.015425559133291245 -0.004635666497051716 0.023736657574772835 -0.021801702678203583 -0.0194960068911314 0.030769141390919685 0.0008379349019378424 0.03446105867624283 -0.033902835100889206 -0.01784272864460945 -0.031760502606630325 0.008406388573348522 0.031022200360894203 -0.021056856960058212 0.023713789880275726 0.025298750028014183 -0.023991653695702553 0.0007902511861175299 0.016426092013716698 0.02759285271167755 0.03423511981964111 -0.006301058456301689 0.014236979186534882 0.01063280925154686 0.009922325611114502 0.02212492935359478 -0.033102553337812424 0.00024356588255614042 -0.026124257594347 0.014556200243532658 -0.022349584847688675 0.009834719821810722 -3.606507016229443e-05 -0.0338919572532177 -0.021879304200410843 0.01657893881201744 0.019912460818886757 -0.03443222492933273 -0.012849999591708183 0.030299145728349686 0.015002412721514702 -0.03153027594089508 -0.027538007125258446 2.1227770048426464e-05 -0.02602236717939377 0.005327774211764336 -0.025508085265755653 0.0136402677744627 0.02277846448123455 0.03534599021077156 0.02063852548599243 0.02566574327647686 0.009057147428393364 0.030962184071540833 -0.01488486398011446 0.013356758281588554 -0.0044914656318724155 0.011770350858569145 0.0072186850011348724 0.0257146917283535 0.023074116557836533 0.005817043129354715 -0.028526196256279945 -0.026914827525615692 0.03460201621055603 -0.026273885741829872 0.03152022510766983 -0.00828678347170353 0.0017211523372679949 -0.03416294977068901 -0.0021539502777159214 -0.021425435319542885 -0.021638236939907074 -0.027850927785038948 -0.0253915973007679 0.033381618559360504 0.028786933049559593 0.027562692761421204 -0.019505096599459648 -0.0015183900250121951 0.02502007596194744 0.03027426451444626 0.007355294190347195 0.02484719827771187 -0.02363145537674427 0.0029362314380705357 0.020455578342080116 -0.013304123654961586 -0.01166451070457697 0.011782476678490639 -0.031128250062465668 0.020984966307878494 -0.017426559701561928 -0.0029461896046996117 0.028030937537550926 0.008914990350604057 0.007912551052868366 0.019472595304250717 0.006502590142190456 0.012674165889620781 0.03557707741856575 0.020457740873098373 -0.009255345910787582 -0.02455885149538517 -0.03327178210020065 0.02975093200802803 -0.017920834943652153 0.03188512846827507 0.020069187507033348 -0.02951778471469879 -0.02763299085199833 0.006686227861791849 -0.013235676102340221 0.026372326537966728 -0.009940633550286293 0.00654001347720623 -0.015805184841156006 -0.011194250546395779 -0.02841385453939438 -0.022008202970027924 -0.020943207666277885 -0.011305528692901134 -0.027159186080098152 0.015406805090606213 -0.005680859554558992 0.00922695267945528 0.005952814128249884 -0.005638463422656059 -0.004317952319979668 0.012319893576204777 -0.0317169688642025 0.018526218831539154 0.03281807526946068 0.006392062176018953 0.02293161116540432 0.03490462526679039 0.002855394734069705 0.02725549042224884 0.02696944773197174 -0.03181866928935051 0.003964956384152174 -0.02507837861776352 -0.010563970543444157 -0.025759894400835037 -0.0011675741989165545 0.010269288904964924 -0.010910541750490665 -0.008475576527416706 0.025876697152853012 0.00270822667516768 0.023437893018126488 0.0047241151332855225 0.02706773579120636 0.004478012211620808 0.010097188875079155 0.01820427179336548 -0.028050746768712997 0.020512782037258148 0.010327748022973537 0.0014378343475982547 -0.008679947815835476 0.0067019336856901646 -0.01229841448366642 -0.010665656067430973 0.02744411677122116 0.010202212259173393 -0.01971760019659996 0.024558089673519135 -0.031253211200237274 -0.02780873514711857 0.030626660212874413 -0.03151087090373039 -0.0009420259157195687 0.006183262448757887 -0.02484600618481636 0.029531991109251976 0.0018096737330779433 -0.03472427278757095 -0.026986464858055115 -0.008944890461862087 0.03098553977906704 0.004860060755163431 -0.0007502947701141238 -0.028775425627827644 -0.0064860456623137 0.008921053260564804 0.03397304564714432 -0.009581080637872219 0.029475972056388855 0.008574086241424084 -0.006594296079128981 0.021432090550661087 0.0018643864896148443 0.013424720615148544 0.004177911207079887 -0.014078379608690739 0.029502959921956062 0.021106282249093056 -0.0011881378013640642 -0.027901247143745422 0.0006167676183395088 0.020809195935726166 0.028552260249853134 -0.027076561003923416 0.02724825218319893 -0.013784388080239296 -0.01141035184264183 -0.005859958473592997 0.013958948664367199 -0.0025503167416900396 -0.030192747712135315 0.02098696678876877 -0.028764303773641586 0.03528106212615967 0.03435920551419258 -0.009802435524761677 0.0021455585956573486 -0.015611657872796059 -0.027631858363747597 0.02235950343310833 0.02492332085967064 0.00896065216511488 -0.023378105834126472 0.00978869665414095 -0.012942702509462833 0.00574140902608633 -0.025509797036647797 -0.02010667882859707 0.005516214296221733 -0.031910669058561325 -0.0007666008896194398 0.012600550428032875 0.008077740669250488 0.008982313796877861 -0.01574195735156536 -0.009652644395828247 0.014091807417571545 -0.013508988544344902 0.02087893709540367 -0.03221704065799713 -0.03530789911746979 -0.02656550146639347 0.029461879283189774 0.012959267944097519 0.005174373276531696 -0.018056482076644897 -0.012691681273281574 -0.024993224069476128 -0.019573604688048363 -0.01425370667129755 0.0247140321880579 0.014079541899263859 0.02999836392700672 0.01053768489509821 0.032021187245845795 -7.897189789218828e-05 0.01817123405635357 0.020001225173473358 0.0012758374214172363 -0.023210084065794945 -0.02174343913793564 -0.015635142102837563 -0.029364511370658875 -0.03401561453938484 0.029267746955156326 0.02461175061762333 0.007974718697369099 0.014856104739010334 0.021782023832201958 -0.007313473150134087 0.01642363891005516 -0.02336273156106472 -0.021752797067165375 -0.011787730269134045 0.025937166064977646 0.013711299747228622 0.027754222974181175 -0.032351817935705185 0.008855513297021389 0.026733245700597763 0.011860239319503307 0.02353956177830696 0.01753958687186241 0.027954034507274628 0.021799685433506966 0.011251053772866726 -0.019625753164291382 -0.002735563786700368 0.006010008975863457 -0.008682209067046642 0.014164593070745468 -0.023081086575984955 0.017052799463272095 0.02727295458316803 -0.003422013483941555 -0.014829350635409355 0.010972070507705212 0.007265998050570488 -0.021100027486681938 -0.028427308425307274 0.03225228190422058 0.032420314848423004 0.004198704846203327 0.029232444241642952 -0.022495891898870468 -0.003098734887316823 0.011206346563994884 0.016368500888347626 -0.0018539982847869396 0.01679786667227745 0.014499673619866371 0.021265733987092972 0.027907058596611023 -0.0021814533974975348 -0.0347566083073616 0.0007433040300384164 -0.01387979369610548 -0.020760413259267807 -0.019808318465948105 -0.0038674729876220226 -0.009654819965362549 0.01847725734114647 -0.017063116654753685 0.006721211597323418 0.005663527175784111 0.007071478292346001 -0.0006772620836272836 0.023715617135167122 0.023654641583561897 -0.03299760818481445 -0.03253702446818352 0.016977902501821518 0.02813500352203846 0.03002268634736538 -0.03189116343855858 -0.021009007468819618 0.01821175217628479 0.011745551601052284 -0.034397561103105545 -0.02423054538667202 0.0062412237748503685 0.022794069722294807 -0.0033166452776640654 0.01173434592783451 -0.024572497233748436 -0.016484295949339867 0.005499350372701883 -0.010006223805248737 0.032338645309209824 0.02599862404167652 0.010629693046212196 0.03409479558467865 0.020243501290678978 -0.03342865779995918 -0.03250324726104736 0.025165308266878128 0.01845777966082096 -0.015500776469707489 0.009423550218343735 -0.0006446881452575326 0.024157537147402763 -0.0021917521953582764 -0.0037048759404569864 0.024522999301552773 0.010914845392107964 -0.008820793591439724 -0.02565600723028183 0.02601337991654873 0.009337442927062511 -0.0022318875417113304 -0.03488541394472122 0.025335390120744705 0.0007654556538909674 -0.01390143483877182 -0.026493776589632034 0.00588765786960721 -0.02265225164592266 0.02541365846991539 0.033215202391147614 -0.009440886788070202 -0.01253504864871502 -0.020396659150719643 -0.02683553658425808 -0.02176734060049057 -0.023100120946764946 -0.018220029771327972 0.034811779856681824 -0.019528448581695557 -0.010099594481289387 -0.0010590170277282596 -0.012565847486257553 0.015221507288515568 0.03475522622466087 0.0077905659563839436 0.02965388260781765 0.025746669620275497 0.011145243421196938 -0.03084266372025013 -0.03542066738009453 -0.01936568133533001 -0.0015892897499725223 -0.00222933292388916 -0.012522540055215359 -0.007729074917733669 0.017691101878881454 -0.010946172289550304 0.024462373927235603 0.0029860055074095726 0.0067411623895168304 0.03372631594538689 0.030055001378059387 -0.0009287766297347844 0.019843362271785736 -0.009625282138586044 0.004873608238995075 -0.02583370916545391 -0.009577606804668903 -0.023765254765748978 0.030713772401213646 0.0077063702046871185 0.013676563277840614 -0.028406446799635887 -0.017846431583166122 0.025795217603445053 -0.034211691468954086 0.02361864037811756 0.011421497911214828 -0.02759123407304287 0.01680898666381836 0.03337228298187256 0.025305667892098427 -0.004256529733538628 -0.03242456540465355 -0.020344121381640434 0.028854157775640488 0.013078915886580944 0.00898850429803133 -0.001488919835537672 -0.004773383028805256 -0.01685023307800293 -0.003039236646145582 -0.005779458209872246 -0.020461130887269974 0.02832130528986454 -0.030016819015145302 0.021999968215823174 -0.008841020986437798 -0.013557251542806625 -0.021699149161577225 0.02141852118074894 -0.01033093687146902 0.0008599034626968205 0.01084775198251009 -0.01728595234453678 0.02915353514254093 0.022073550149798393 -0.01586347073316574 -0.025148434564471245 0.01649463176727295 0.02694135159254074 0.02317327819764614 -0.006764944642782211 -0.030231395736336708 -0.02346581406891346 0.024727655574679375 0.02421916462481022 -0.010092714801430702 0.015898415818810463 0.03034113347530365 -0.017621926963329315 -0.02500135637819767 -0.032579563558101654 -0.0010655948426574469 -0.009587598964571953 -0.02959676831960678 -0.026063742116093636 0.03293021768331528 -0.008238903246819973 -0.019542375579476357 -0.014650077559053898 0.033730398863554 0.0008031981415115297 0.009175177663564682 0.012696024030447006 -0.015767766162753105 -0.022679325193166733 -0.012235301546752453 -0.022202186286449432 0.03518534451723099 0.01039174199104309 0.006168046500533819 -0.029946988448500633 0.02562054619193077 -0.002885627094656229 -0.00786524172872305 0.028883131220936775 0.024295110255479813 -0.010999543592333794 0.025694239884614944 -0.002375726355239749 -0.010833170264959335 -0.03321557119488716 0.012126399204134941 -0.006472677458077669 -0.007178553845733404 0.012062707915902138 0.029899228364229202 -0.02420026622712612 -0.014944647438824177 -0.0006404987652786076 -0.018091151490807533 0.0071480534970760345 -0.01122995838522911 0.03220585733652115 -0.025213995948433876 0.025948086753487587 -0.028139080852270126 -0.0016583886463195086 0.004475308582186699 0.034014731645584106 -0.012990164570510387 -0.017070315778255463 0.0020758211612701416 0.03150944784283638 -0.013548340648412704 -0.016944626346230507 0.03268781304359436 0.010686014778912067 0.026123682036995888 -0.013934548944234848 -0.026181792840361595 -0.008877328597009182 -0.019580066204071045 0.002942651743069291 -0.010164606384932995 -0.004227306228131056 0.0031424209009855986 0.024302739650011063 0.027192559093236923 -0.027928132563829422 0.02267424575984478 0.01620861142873764 -0.03200434148311615 -0.006483248434960842 -0.03324597328901291 0.0322716198861599 0.0001151902397396043 -0.03502215817570686 0.013276437297463417 0.005816000048071146 0.019195569679141045 -0.0060550617054104805 0.015120545402169228 0.018240205943584442 -0.008746002800762653 -0.0008665962377563119 -0.021396199241280556 -0.022632932290434837 -0.010369092226028442 0.01708133891224861 -0.024197272956371307 0.007831293158233166 0.019265521317720413 -0.0016667204909026623 -0.03198116645216942 0.01847047172486782 -0.004418181721121073 -0.02135024033486843 0.02393185719847679 -0.017826281487941742 -0.014142688363790512 0.028982410207390785 0.010378757491707802 0.0024694630410522223 0.024297604337334633 0.012165244668722153 -0.003367509227246046 0.013356001116335392 -0.005664736498147249 -0.00955296028405428 0.003275079419836402 -0.0309954434633255 0.03484721854329109 0.02909417450428009 -0.028681237250566483 -0.03482659533619881 -0.0014722731430083513 -0.006500521209090948 -0.00900887232273817 -0.0024649330880492926 0.03312721848487854 0.024177517741918564 0.012156406417489052 0.009702665731310844 -0.020383264869451523 0.027654968202114105 0.02146615833044052 0.030620533972978592 -0.014086532406508923 -0.021782292053103447 0.006229754071682692 -0.0029059734661132097 0.014662368223071098 -0.016918933019042015 0.03281191736459732 0.011373201385140419 0.02432207204401493 0.003918217960745096 -0.009558665566146374 -0.012783613055944443 0.02414870448410511 0.012225283309817314 -0.01383398286998272 0.0062961881048977375 -0.028705721721053123 -0.008889075368642807 0.0002156623813789338 0.013087673112750053 -0.028269246220588684 0.007196477614343166 0.035590581595897675 -0.03508131206035614 0.02716853842139244 0.03203056752681732 0.0014619657304137945 0.002490737708285451 0.020788155496120453 -0.0002875072823371738 -0.023888614028692245 0.032323405146598816 0.03311417996883392 0.0014152697985991836 0.010889849625527859 0.013361667282879353 -0.02609056420624256 -0.012987197376787663 0.029997030273079872 -0.005021946970373392 0.020625745877623558 -0.01965656504034996 -0.014025045558810234 -0.02477378584444523 -0.014194382354617119 -0.002008327515795827 -0.01347070187330246 0.01665673591196537 -0.009946559555828571 0.012840492650866508 -0.012441499158740044 0.02519100531935692 -0.035650476813316345 -0.03199908137321472 0.033669065684080124 -0.03050006367266178 -0.005075774155557156 0.021938150748610497 0.015079030767083168 -0.022195536643266678 -0.03476397693157196 -0.028592923656105995 0.005444348324090242 0.002536224666982889 0.029562756419181824 -0.023736367002129555 -0.030003592371940613 -0.02905198186635971 -0.0006594232399947941 -0.002690549474209547 0.016067322343587875 -0.006955892313271761 -0.030834153294563293 -0.0107795475050807 -0.021226458251476288 0.005669517442584038 0.02583000622689724 0.02284395322203636 0.024943705648183823 -0.03309299051761627 0.016040891408920288 0.020983446389436722 -0.015958910807967186 -0.004748242441564798 0.03312031179666519 -0.018086452037096024 -0.0018388970056548715 0.013552973046898842 -0.012239018455147743 0.023730631917715073 0.0013022891944274306 0.008346800692379475 -0.019296638667583466 0.018337905406951904 0.019202016294002533 0.02680731751024723 0.012666110880672932 -0.007247673813253641 -0.00446504820138216 -0.024198120459914207 -0.005795674864202738 -0.02109224908053875 0.014121737331151962 0.013757847249507904 0.006104771979153156 0.018141228705644608 0.004425083287060261 -9.093966582440771e-06 0.007932846434414387 -0.03397399187088013 -0.028367528691887856 0.030123474076390266 0.02915767766535282 -0.004398047924041748 -0.023919787257909775 -0.0006194327725097537 0.025650765746831894 -0.0009395693195983768 -0.03291734308004379 -0.020253736525774002 0.03069007582962513 -0.005109736230224371 -0.01570371724665165 -0.005025221034884453 -0.011329421773552895 0.022581834346055984 0.01249998901039362 -0.014216930605471134 0.027173584327101707 -0.007530719507485628 0.006768946535885334 -0.013849693350493908 -0.00026101726689375937 0.0342288613319397 -0.023071980103850365 0.02767089195549488 -0.009753376245498657 0.0021322157699614763 -0.022134356200695038 0.002435497008264065 -0.0032141166739165783 -0.0255002211779356 0.012194911018013954 0.02025727368891239 -0.026932725682854652 0.02998686395585537 0.016472604125738144 -0.03542974591255188 -0.005045644007623196 0.018574804067611694 -0.0338386595249176 -0.03198954463005066 0.004722114186733961 -0.02288052998483181 0.030728362500667572 0.030303385108709335 -0.011543500237166882 -0.016381852328777313 -0.01309167966246605 0.03116794303059578 0.013852928765118122 0.02407141402363777 -0.002946973079815507 -0.0010116015328094363 0.03159843385219574 -0.03312798961997032 0.020441878587007523 -0.03510560095310211 -0.01742953062057495 0.029863499104976654 -0.0015108075458556414 -0.014441103674471378 -0.014506693929433823 0.009570479393005371 -0.02575235813856125 0.026098771020770073 0.02910526469349861 0.030346641317009926 -0.014421101659536362 -0.004893784411251545 -0.012260488234460354 0.026199860498309135 -0.03431149944663048 0.007344007957726717 -0.030624723061919212 0.011722714640200138 -0.023024091497063637 0.03526376932859421 -0.011007053777575493 -0.019742034375667572 -0.022229434922337532 -0.012143987230956554 0.02076885662972927 0.001766656176187098 0.002089198213070631 -0.01340394001454115 -0.03358086198568344 -0.031393617391586304 0.02071157656610012 0.027476653456687927 0.03256643936038017 0.016053754836320877 0.0007129099103622139 0.008831838145852089 -0.019482728093862534 -0.031794674694538116 -0.01283933874219656 -0.017299704253673553 -0.017355050891637802 -0.03139795735478401 0.02838899940252304 0.0032328793313354254 -0.008310539647936821 0.022882552817463875 0.02750433050096035 0.0072705792263150215 0.01612057536840439 0.006159723270684481 -0.025893114507198334 -0.012318190187215805 -0.020570019260048866 -0.027869263663887978 -0.028808671981096268 0.02124217338860035 -0.010318241082131863 0.026774322614073753 -0.0029053902253508568 -0.025815509259700775 -0.022673888131976128 0.03274378925561905 0.011178932152688503 0.016445646062493324 -0.011426913551986217 -0.025422506034374237 -0.003019418101757765 -0.00889221765100956 0.008794060908257961 0.020275065675377846 0.03255286067724228 -0.012024999596178532 -0.03258947283029556 0.03163537383079529 -0.023330731317400932 -0.010036583989858627 0.02855907753109932 0.018967365846037865 0.012775273062288761 0.007822347804903984 0.014979290775954723 -0.014294569380581379 0.017877452075481415 0.02193456143140793 -0.031118841841816902 -0.024178238585591316 0.006326432805508375 0.008834660053253174 -0.03534619137644768 -0.022220199927687645 0.03152238205075264 -0.010899177752435207 0.027112873271107674 0.0126731488853693 -0.023953085765242577 0.02644457295536995 -0.024676354601979256 0.031739797443151474 0.032679542899131775 -0.013448226265609264 0.01855095475912094 -0.01117787230759859 -0.03283965587615967 0.02573815919458866 -0.029430756345391273 -0.02361641637980938 0.01507068146020174 0.03091224655508995 -0.013829512521624565 0.011835528537631035 -0.004584521055221558 0.02241181582212448 -0.027438195422291756 0.026631517335772514 -0.009536156430840492 -0.013207159005105495 -0.0298263318836689 -0.01578379236161709 -0.007136962376534939 -0.0014046005671843886 0.025963086634874344 -0.00019947972032241523 -0.03283655643463135 -0.01836099848151207 -0.004069949965924025 -0.020402900874614716 -0.03073013387620449 0.02802986092865467 -0.0034683390986174345 0.011811401695013046 -0.032840926200151443 0.01586400344967842 -0.03303944692015648 -0.01431315392255783 0.03328036144375801 0.030188294127583504 0.02624783106148243 0.03193162381649017 -0.0014496531803160906 -0.030774446204304695 0.014787363819777966 0.02197510190308094 0.015798062086105347 0.03309556096792221 -0.019025718793272972 0.010477138683199883 -0.01310205552726984 0.03134789317846298 0.03471001610159874 -0.003136532846838236 -0.034424036741256714 -0.0017240388551726937 0.028789052739739418 0.03495803102850914 -0.009809983894228935 0.009089108556509018 0.011428595520555973 -0.027509814128279686 -0.006451317574828863 0.020531659945845604 -0.005622229538857937 0.007900889962911606 -0.004688488785177469 -0.010781531222164631 -0.02083740569651127 0.006099773570895195 -0.006049714051187038 0.004173381254076958 0.002502965275198221 0.003110464196652174 -0.010916395112872124 -0.01624721847474575 0.016620853915810585 -0.014422358013689518 -0.016961796209216118 0.034697964787483215 -0.0028492086566984653 -0.021144267171621323 0.029231898486614227 -0.021286046132445335 0.027477720752358437 0.031819574534893036 -0.0008342692162841558 -0.0285689327865839 -0.029395850375294685 0.008243292570114136 0.015686120837926865 -0.009491367265582085 0.015700936317443848 0.006604612339287996 0.005356848705559969 -0.017744891345500946 0.014188328757882118 -0.02392304502427578 0.017010992392897606 0.0018275764305144548 -0.0035509681329131126 0.030943382531404495 0.009397771209478378 -0.02856167033314705 -0.014149176888167858 0.03406115993857384 -0.0019586726557463408 0.026373090222477913 0.009626014158129692 -0.023148847743868828 -0.017271213233470917 -0.030872907489538193 0.035039134323596954 0.018293458968400955 -0.019921325147151947 0.02561163529753685 0.014346741139888763 -0.002781118731945753 0.03271307796239853 0.008677750825881958 -0.007878512144088745 -0.004740098025649786 0.022242913022637367 -0.012777465395629406 0.019771955907344818 0.019804447889328003 -0.021633200347423553 0.015235139057040215 -0.03144269809126854 0.008210842497646809 -0.008411301299929619 0.008269574493169785 -0.028218109160661697 0.0180070623755455 0.01361365057528019 -0.032669659703969955 -0.03514726832509041 0.023128889501094818 0.001434351783245802 -0.029537269845604897 0.02030884101986885 -0.027039363980293274 -0.015966331586241722 0.030500503256917 0.0307137630879879 -0.0037195428740233183 0.01858816109597683 -0.00014734694559592754 -0.02170340158045292 0.03271300718188286 0.0008420689264312387 0.025880759581923485 0.0009253621683456004 -0.002921206643804908 0.02923102118074894 -0.024431366473436356 -0.027312003076076508 0.0015657034236937761 -0.013745580799877644 0.02560138888657093 0.01979563571512699 0.03015107475221157 -0.022859957069158554 -0.007081632502377033 -0.015552394092082977 0.01615455001592636 0.03207126259803772 -0.029747607186436653 -0.026193419471383095 -0.024148695170879364 0.0049994164146482944 0.021591562777757645 -0.015612798742949963 -0.018013525754213333 0.01917865127325058 -0.004628100898116827 -0.011284640990197659 0.028117824345827103 -0.009096312336623669 -0.01583428494632244 0.00589544465765357 0.03466957435011864 0.01440731156617403 0.01644640788435936 0.02514651045203209 0.026727162301540375 -0.017083926126360893 0.02404981479048729 -0.0026358410250395536 -0.0008376411278732121 0.02917901612818241 0.004595914389938116 -0.021586593240499496 0.02080060914158821 -0.02852829545736313 -0.0010782182216644287 0.016928303986787796 -0.02957729436457157 -0.020703470334410667 -0.025209130719304085 0.031605303287506104 0.03007098287343979 -0.013796743005514145 0.011685938574373722 -0.022980375215411186 0.02873525582253933 -0.03450606390833855 0.02976538985967636 -0.0016116414917632937 0.0317680723965168 0.005364388693124056 -0.021779419854283333 -0.012702529318630695 0.02595572918653488 -0.03283628076314926 -0.02378673665225506 -0.014655394479632378 0.0032150873448699713 0.03566084802150726 -0.03542972356081009 -0.003668776713311672 -0.004555072169750929 -0.0225139781832695 -0.0351383313536644 -0.02128378488123417 0.017620841041207314 -0.005698476918041706 0.030711933970451355 0.027843855321407318 -0.0015389068285003304 -0.0015602495986968279 -0.0009607375250197947 0.03322862088680267 -0.007431030739098787 0.024745924398303032 -0.02424807660281658 -0.010496051050722599 0.0054558091796934605 0.008118110708892345 0.024055834859609604 0.004163716919720173 -0.03511741757392883 0.006554157007485628 -0.022351810708642006 0.011379638686776161 -0.028418466448783875 -0.03339831158518791 -0.02503562532365322 -0.016148172318935394 -0.008833030238747597 -0.0042841690592467785 -0.03353836387395859 -0.011904103681445122 0.013346110470592976 0.009648498147726059 -0.007220949977636337 0.004783383570611477 -0.006103034596890211 0.008094136603176594 -0.011440741829574108 -0.0031737175304442644 0.011353978887200356 -0.01606946438550949 0.0030457081738859415 0.020396506413817406 0.013077995739877224 0.025911681354045868 0.02170569635927677 -0.019802851602435112 0.021667247638106346 0.00966624729335308 -0.014651261270046234 -0.032960373908281326 -0.0217469222843647 -0.017879988998174667 0.023965176194906235 0.0030223175417631865 0.00012606382369995117 -0.02709391340613365 0.01785326562821865 0.003312255721539259 0.00875772349536419 0.005418633110821247 0.028247298672795296 -0.015628688037395477 0.013059603981673717 0.008242313750088215 -0.020379334688186646 0.008057752624154091 0.02410450205206871 -0.005113338120281696 0.003530659945681691 -0.023666271939873695 -0.0006666737026534975 0.034256547689437866 0.008567874319851398 0.032394517213106155 0.00857260450720787 -0.0030533161479979753 -0.005017306189984083 0.02035442553460598 -1.7391785149811767e-05 -0.03389658033847809 -0.0004495169559959322 -0.022955086082220078 -0.02763328142464161 -0.002847867552191019 -0.03390621393918991 0.015899399295449257 0.003275943687185645 -0.011182883754372597 -0.005585973151028156 0.00399139104411006 0.005954972468316555 -0.02012564055621624 -0.0014733971329405904 0.02618345245718956 0.02275124378502369 0.02812092751264572 -0.013938146643340588 -0.004038419108837843 -0.00901843886822462 0.006796581670641899 -0.008886555209755898 -0.029391251504421234 0.015243930742144585 0.009538966231048107 0.033655960112810135 -0.017978128045797348 0.010531310923397541 -0.030163714662194252 -0.006339239422231913 0.02955438941717148 -0.020487917587161064 0.002335786819458008 -0.021737048402428627 0.013657642528414726 0.035634856671094894 -0.011155924759805202 0.006338524166494608 -0.017654696479439735 0.01832681894302368 0.008462335914373398 -0.005177898332476616 0.025338228791952133 0.023183206096291542 0.03468236327171326 0.019349196925759315 -0.008276394568383694 -0.005433674436062574 -0.03380810469388962 -0.009219800122082233 0.0025891789700835943 -0.03306402638554573 0.03270407393574715 -0.005664255004376173 0.006520582363009453 -0.01450982317328453 0.025164643302559853 -0.010195761919021606 -0.0013337093405425549 0.00803567748516798 -0.002471357583999634 -0.010855155996978283 -0.010283219628036022 -0.006345332134515047 0.010332733392715454 0.011208530515432358 0.025770576670765877 0.019830627366900444 0.029519665986299515 -0.025196600705385208 0.013348554261028767 -0.02084837295114994 0.023542489856481552 0.008893090300261974 -0.0011543206637725234 0.006217820569872856 -0.027198346331715584 -0.03485512733459473 0.023662960156798363 0.029624033719301224 -0.009336655028164387 0.002100961748510599 -0.005168842617422342 0.005396472755819559 -0.024508455768227577 -0.033622436225414276 0.020506203174591064 -0.021527018398046494 -0.016779355704784393 0.009068220853805542 0.026913614943623543 0.03042689897119999 0.019908417016267776 0.0246499702334404 0.03272338956594467 -0.030879486352205276 0.0015609009424224496 -0.007295634597539902 0.0160794947296381 -0.01751866564154625 -0.010624886490404606 -0.02270999178290367 -0.010657609440386295 0.005647118669003248 -0.023260828107595444 -0.02774072252213955 -0.012345774099230766 -0.02376372180879116 -0.02324380725622177 -0.008558759465813637 -0.012972733937203884 -0.0026781007181853056 0.014072959311306477 -0.019179485738277435 0.012557817623019218 -0.011486407369375229 -0.014258811250329018 0.02489740587770939 -0.03143852949142456 0.00553723331540823 0.013348720036447048 -0.0038623895961791277 -0.019917096942663193 -0.004030619747936726 -0.026503439992666245 -0.007968217134475708 0.029081396758556366 0.027904340997338295 0.00951516255736351 -0.01737254485487938 -0.034856557846069336 -0.026879997923970222 -0.013186974450945854 0.004122793674468994 -0.003326437436044216 0.021422438323497772 -0.014382686465978622 -0.009662806987762451 -0.004449482541531324 0.02434646710753441 -0.006643861997872591 -0.03224187716841698 0.020672807469964027 0.026032960042357445 -0.008989015594124794 0.010312685742974281 0.021857531741261482 -0.02138473466038704 -0.02947009541094303 0.010569470934569836 -0.028429560363292694 0.007073517888784409 -0.012268437072634697 -0.01271373126655817 -0.01968010514974594 0.005978235509246588 0.011738117784261703 0.030973294749855995 -0.01935647800564766 -0.028308622539043427 0.02026335336267948 0.03497990593314171 -0.03396611660718918 0.012689820490777493 0.009814518503844738 -0.0004753002431243658 0.033644724637269974 0.0006395323434844613 0.0010245655430480838 -0.0336742177605629 0.030205871909856796 -0.014208253473043442 -0.019407805055379868 0.002272107871249318 -0.02081839181482792 0.004618649370968342 0.022316766902804375 -0.006397890392690897 0.024017509073019028 -0.015187736600637436 -0.00569082610309124 -0.01761067472398281 -0.031755976378917694 -0.01602155901491642 -0.028521046042442322 0.033271148800849915 0.01441187970340252 0.02867209166288376 0.0028807693161070347 0.0037636971101164818 0.030139192938804626 0.021617872640490532 -0.006409551482647657 0.031838417053222656 -0.020207924768328667 0.004320298321545124 -0.0022614854387938976 -0.025402363389730453 0.03393702581524849 -0.0318138524889946 0.03570137172937393 0.00856289267539978 -0.028368882834911346 0.02418123558163643 -0.0337817445397377 0.013146583922207355 -0.00866640079766512 0.006322469096630812 0.0353240892291069 0.03358478844165802 -0.024142155423760414 0.01345575787127018 0.033671047538518906 -0.016408422961831093 0.011255601420998573 -0.009632579050958157 -0.015014300122857094 0.0088507030159235 0.026470107957720757 -0.01071224920451641 -0.027948465198278427 -0.018469074741005898 0.025548284873366356 0.028979502618312836 -0.0019386709900572896 -0.021906746551394463 0.03396844118833542 0.019111348316073418 0.026834771037101746 -0.0026026838459074497 0.0225337166339159 0.018161455169320107 -0.005654237233102322 -0.001885286532342434 0.018974317237734795 0.006904300302267075 -0.011582354083657265 0.004011622630059719 0.02705879509449005 0.003493215423077345 0.02866012416779995 0.01221007201820612 0.01021699421107769 -0.0019259240943938494 -0.026629125699400902 -0.034143637865781784 0.02567484602332115 -0.02363738976418972 -0.005330490414053202 -0.004409377463161945 0.01773354411125183 -0.0006716549978591502 0.012354357168078423 0.016362331807613373 0.0034162786323577166 -0.026760060340166092 -0.025245092809200287 -0.002683511935174465 -0.016945183277130127 0.033210188150405884 0.025032155215740204 -6.509253580588847e-05 -0.0020916888024657965 -0.034578341990709305 -0.018025368452072144 -0.005172005854547024 0.015087069012224674 0.024076050147414207 -0.021231571212410927 -0.009275411255657673 0.001647689612582326 0.005455362144857645 0.032594431191682816 0.01907382346689701 0.02088863216340542 -0.003795981639996171 -0.020759224891662598 -0.022263890132308006 -0.027094008401036263 0.027700625360012054 0.012686065398156643 0.021280022338032722 -0.011813313700258732 -0.03127279132604599 0.0002054401847999543 -0.010294834151864052 -0.02890411578118801 -0.02108153887093067 0.003118787659332156 -0.03406085819005966 -0.014267624355852604 0.008431213907897472 -0.011842967011034489 -0.029134543612599373 0.028953196480870247 0.0019415277056396008 -0.02851022221148014 -0.006001958157867193 -0.006023803260177374 0.02251489832997322 -0.011052051559090614 0.00909291859716177 -0.035275816917419434 -0.024378957226872444 -0.03229592740535736 -0.017317496240139008 -0.029900407418608665 -0.011319335550069809 8.822765084914863e-05 -0.030905695632100105 -0.027569597586989403 0.013742797076702118 0.027761051431298256 -0.018473191186785698 -0.018858790397644043 -0.03252308443188667 0.012098287232220173 0.02262737601995468 0.006182781420648098 0.03305038809776306 0.026919260621070862 -0.00430475827306509 0.020748548209667206 -0.0014433009782806039 -0.004363949876278639 0.017599213868379593 -0.024510018527507782 -0.02125697210431099 -0.02314416877925396 0.00769205205142498 0.03183089196681976 0.02765806019306183 -0.027021285146474838 -0.006644840817898512 -0.028135355561971664 0.016848739236593246 0.028236808255314827 -0.02468063309788704 -0.024563411250710487 -0.03459849953651428 -0.03305421769618988 -0.031070131808519363 0.003892204724252224 0.0020422765519469976 0.02223188616335392 -0.034687042236328125 0.015830576419830322 0.03346046432852745 -0.015301790088415146 -0.016750464215874672 0.005601419135928154 0.02715490199625492 -0.01194851379841566 -0.009333972819149494 0.01693897321820259 -0.03536229953169823 -0.008051136508584023 -0.012478616088628769 0.02969449944794178 0.010224487632513046 0.003543594153597951 -0.002588719129562378 0.007157415617257357 0.006574069149792194 0.015460755676031113 -0.014622148126363754 0.01521129347383976 -0.008716979995369911 -0.030963435769081116 0.01224459521472454 -0.02567320689558983 0.03461851924657822 0.023884382098913193 0.031307514756917953 -0.03138286992907524 -0.015831399708986282 -0.002254341496154666 0.006195456255227327 -0.0002430294407531619 -0.018294615671038628 -0.01728828065097332 -0.02975563146173954 -0.026977306231856346 0.019672155380249023 -0.00613826559856534 -0.005014517810195684 0.0027396383229643106 -0.004179056268185377 -0.0038861974608153105 0.01442903745919466 -0.008760456927120686 0.028296122327446938 0.030426640063524246 0.005259228870272636 -0.031043611466884613 -0.020238123834133148 0.015969302505254745 0.005369569640606642 -0.017329305410385132 -0.0320734940469265 -0.01847177743911743 0.022186212241649628 0.0008145954343490303 0.011780760250985622 0.020123695954680443 0.035390596836805344 -0.009732212871313095 -0.009815995581448078 -0.023315664380788803 0.007349810563027859 -0.006416525226086378 0.00045237797894515097 0.022020600736141205 0.001637565321289003 0.030163438990712166 -0.0324520617723465 -0.007841995917260647 -0.024475784972310066 -0.010518904775381088 -0.03147461265325546 0.019424520432949066 -0.03150152415037155 0.014877596870064735 0.03060620278120041 -0.022422434762120247 -0.008134893141686916 0.011853444389998913 -0.02986060455441475 -0.010808626189827919 -0.01592848263680935 -0.0023985975421965122 0.0105753717944026 -0.019084718078374863 -0.01980724185705185 0.005602245219051838 -0.017734725028276443 0.0032908960711210966 -0.013313417322933674 -0.020717520266771317 0.009632396511733532 0.011464370414614677 0.02191767282783985 -0.02430223673582077 -0.035317376255989075 -0.03466203063726425 -0.030567988753318787 -0.02581990323960781 -0.029384125024080276 -0.0008462625555694103 0.02388976886868477 -0.02115090936422348 0.025562334805727005 0.03232801705598831 -0.010833404026925564 0.003584010526537895 0.00341145065613091 -0.019141172990202904 0.013016181997954845 0.010763522237539291 -0.011836997233331203 0.018673501908779144 -0.011782718822360039 -0.034932997077703476 -0.015129324048757553 -0.02063588611781597 -0.003961614333093166 -0.013941110111773014 -0.007588097359985113 0.012700668536126614 -0.015263204462826252 -0.03368954733014107 -0.01983616314828396 0.03329482674598694 -0.008085442706942558 0.013761652633547783 0.021277254447340965 -0.018870597705245018 0.027992065995931625 0.03545088693499565 0.02979447692632675 -0.02669438347220421 0.00018055099644698203 -0.017433732748031616 0.001713003497570753 -0.03321342542767525 -0.01609176956117153 -5.722046353184851e-06 0.035649623721838 -0.007057121954858303 0.014133858494460583 -0.018251921981573105 0.024127108976244926 0.03026658482849598 -0.028988800942897797 -0.023453420028090477 -0.001404868788085878 0.028685251250863075 -0.026746179908514023 -0.02818126417696476 7.084012031555176e-05 0.012703214772045612 -0.03498648852109909 0.028227441012859344 0.027837738394737244 -0.03139563649892807 0.026925131678581238 -0.024719448760151863 -0.017511367797851562 0.00182494951877743 0.0037872111424803734 -0.028566744178533554 -0.031246867030858994 0.006985881831496954 0.021504487842321396 0.012224053032696247 -0.004436620976775885 -0.032674968242645264 0.025710754096508026 -0.0007738216081634164 0.03480183705687523 -0.0056283134035766125 -0.008125965483486652 -0.002847624709829688 0.00997905246913433 0.03417030721902847 -0.0031508549582213163 0.01863766275346279 0.031629014760255814 -0.03474457189440727 0.024646436795592308 0.01842808723449707 -0.015816310420632362 -0.012419816106557846 0.01587412692606449 -0.016098028048872948 -0.004327212460339069 -0.022451210767030716 0.003472200594842434 -0.017090313136577606 -0.008884932845830917 -0.006035021506249905 -0.0068091158755123615 0.029691115021705627 0.010736865922808647 -0.003283483674749732 0.025498948991298676 -0.016949696466326714 0.016690850257873535 -0.025247987359762192 0.0077551607973873615 -0.023535078391432762 -0.013179532252252102 -0.009640234522521496 0.022233296185731888 -0.031057870015501976 -0.018248243257403374 -0.02751229703426361 -0.02312123030424118 -0.012727554887533188 -0.0017821278888732195 -0.0037765505257993937 -0.017835579812526703 -0.02475384809076786 -0.0014570270432159305 -0.006666958797723055 0.0025984901003539562 0.010119876824319363 -0.026681121438741684 0.024248285219073296 0.012756360694766045 0.010820070281624794 0.015380860306322575 -0.011175526306033134 -0.018725788220763206 -0.010371323674917221 -0.02387903444468975 -0.017011886462569237 0.010790612548589706 0.001254724687896669 -0.02625923603773117 -0.018723148852586746 0.029700877144932747 0.02817998267710209 -0.007084067910909653 -0.025154192000627518 -0.0015179814072325826 -0.030289391055703163 -0.0017525298753753304 -0.008960566483438015 -0.034217216074466705 0.013576921075582504 0.0066587673500180244 0.0015481881564483047 -0.0263539906591177 0.03189920634031296 -0.02230706438422203 0.024748165160417557 -0.024979881942272186 0.021110262721776962 -0.0028673496562987566 0.0269312784075737 0.01788654923439026 0.0025756999384611845 -0.013284045271575451 0.000816085550468415 -0.031275078654289246 0.016728661954402924 -0.024027369916439056 -0.02382289245724678 0.014700503088533878 -0.01145875919610262 0.03359822556376457 -0.012044170871376991 -0.02019399031996727 0.024217452853918076 -0.005800941493362188 0.03090156987309456 0.00998032558709383 0.006737918127328157 -0.031574733555316925 -0.030687794089317322 0.013898501172661781 -0.03414689376950264 0.0020934515632689 0.03545178100466728 0.020021341741085052 -0.020613189786672592 -0.0012453071540221572 0.001868890947662294 0.03504376858472824 0.007188525050878525 -0.017450576648116112 -0.03438245877623558 -0.022461168467998505 -0.008311072364449501 0.014937789179384708 -0.018694575875997543 -0.010706285014748573 0.009496893733739853 -0.02762632444500923 0.01097341999411583 -0.0003242194652557373 0.03560230880975723 -0.006034059450030327 -0.032009825110435486 0.028357835486531258 -0.020091377198696136 0.025935735553503036 -0.013382167555391788 0.004146401770412922 0.008403888903558254 -0.027225036174058914 -0.03239704295992851 -0.027816440910100937 0.005761287175118923 -0.003554088994860649 -0.004443194251507521 -0.02970140427350998 -0.008981207385659218 0.031674083322286606 0.013855325989425182 -0.011003801599144936 -0.01564272865653038 0.0189223513007164 -0.005907327402383089 0.011499656364321709 0.000747744576074183 -0.028877826407551765 0.02154233679175377 -0.02836921066045761 0.025758178904652596 -0.01062235701829195 0.0192080270498991 -0.028302645310759544 -0.002123181475326419 -0.005566359031945467 -0.013657855801284313 0.03221094235777855 -0.0035127955488860607 0.02108105644583702 -0.018514016643166542 -0.013500052504241467 -0.03355313092470169 -0.031576674431562424 0.0026411714497953653 0.002114517381414771 -0.002494173590093851 -0.0012448473135009408 0.013672169297933578 -0.013970975764095783 -0.002470386913046241 -0.027736268937587738 -0.002192974090576172 -0.02897549606859684 0.020286578685045242 0.03279391676187515 -0.021085403859615326 0.019392549991607666 -0.014870371669530869 0.012026527896523476 -0.014183364808559418 -0.0012643295340240002 -0.019819894805550575 -0.011491823010146618 0.01311345212161541 0.0017737236339598894 -0.03354082629084587 -0.00963441003113985 -0.029881615191698074 0.013958510011434555 0.002699494594708085 0.0135344872251153 0.01012570969760418 -0.018467631191015244 0.03240703418850899 -0.030684391036629677 -0.01401886809617281 -0.02554624155163765 0.0033661809284240007 0.023664172738790512 -0.0020126616582274437 -0.01959242671728134 0.011014798656105995 0.009187928400933743 -0.021656207740306854 -0.02023795247077942 0.0187880527228117 0.031377483159303665 0.0030834036879241467 0.019182145595550537 -0.02383769117295742 -0.02400684915482998 -0.01846059039235115 0.027417346835136414 -0.0005679726600646973 -0.03079914301633835 0.016120178624987602 0.016025641933083534 -0.03424334153532982 -0.01681697927415371 -0.002483419142663479 0.00590809341520071 -0.006210459396243095 -0.02307574264705181 0.010992148891091347 -0.031092172488570213 0.03346908092498779 -0.016796551644802094 0.033682920038700104 0.027198638767004013 0.030692612752318382 -0.003060979535803199 0.0030099537689238787 -0.010424401611089706 -0.0030280055943876505 -0.013204047456383705 -0.026329156011343002 0.014262842945754528 0.03527229279279709 0.009459985420107841 -0.03246788680553436 -0.010023402981460094 0.03097226470708847 -0.01958087645471096 -0.027278365567326546 -0.027943696826696396 0.022189507260918617 -0.011969907209277153 0.028163906186819077 -0.02341495268046856 0.013384189456701279 -0.035124294459819794 -0.030725613236427307 0.0016978384228423238 0.020729193463921547 0.0058707003481686115 -0.016163159161806107 0.03272723779082298 0.029695652425289154 0.021965257823467255 0.00033869914477691054 -0.035548049956560135 -0.02322898618876934 -0.035621270537376404 0.0017834050813689828 -0.00937113631516695 -0.028339583426713943 0.012981743551790714 0.009052864275872707 -0.003485777648165822 0.029758978635072708 -0.006205699406564236 0.032336633652448654 0.028022268787026405 0.015501925721764565 -0.015368159860372543 0.028503675013780594 0.03141789138317108 0.021318556740880013 0.03062402829527855 -0.001203515799716115 -0.03445599973201752 -0.010834557935595512 -0.03472801670432091 0.019378960132598877 -0.008248547092080116 0.00362584856338799 0.027816668152809143 0.01598396897315979 -0.019760796800255775 -0.009358351118862629 -0.010464916005730629 -0.0009380239062011242 0.0017097295494750142 -0.001734043937176466 -0.010505191050469875 0.03084121085703373 0.02997426688671112 -0.021039078012108803 0.00616192864254117 -0.0028331622015684843 0.006742371246218681 -0.024855755269527435 -0.025395462289452553 -0.026032887399196625 0.011688790284097195 -0.025612402707338333 -0.028729483485221863 0.01573343016207218 -0.017642954364418983 -0.0187727902084589 0.03557517006993294 0.017778921872377396 0.01648891530930996 -0.018551133573055267 -0.008877439424395561 0.0024004706647247076 -0.022822322323918343 0.02834785170853138 0.018397638574242592 0.028381237760186195 0.014070374891161919 -0.023223627358675003 -0.03389294818043709 0.02160252444446087 0.018411019816994667 -0.02907237596809864 -0.030019957572221756 -0.03517729789018631 -0.009135344997048378 0.035387687385082245 -0.004875361919403076 0.0052973246201872826 0.01501765102148056 0.0006764999707229435 -0.03289685398340225 0.026457911357283592 0.011257972568273544 0.028991326689720154 -0.02185249514877796 0.019155634567141533 0.011927119456231594 0.03074325993657112 0.009099411778151989 0.011663795448839664 0.01270743366330862 0.018416400998830795 -0.01963961124420166 0.024138784036040306 0.00956973060965538 0.03519493341445923 -0.014114240184426308 0.03200758621096611 -0.02605137787759304 -0.03098221868276596 0.035482436418533325 0.014888521283864975 -0.017354914918541908 -0.0010458189062774181 -0.007357039954513311 0.03109041042625904 0.023803865537047386 0.03396591544151306 -0.020100880414247513 -0.019088787958025932 0.028587283566594124 -0.0018564803758636117 -0.03457760810852051 0.027433864772319794 0.03169958293437958 0.032006725668907166 -0.02285079099237919 0.017743924632668495 0.013516776263713837 0.025676388293504715 -0.02487863413989544 -0.027530547231435776 0.002714757574722171 0.03530503809452057 0.026895608752965927 0.018986204639077187 0.00021716102492064238 0.027595316991209984 0.019880708307027817 -0.009339673444628716 0.023478146642446518 0.018830828368663788 0.0014780291821807623 0.03221673518419266 -0.011289707385003567 -0.003467479022219777 0.00990116223692894 -0.0032814103178679943 0.034716665744781494 0.03214056044816971 -0.029904767870903015 0.021423203870654106 0.016828503459692 -0.004273176193237305 -0.008238669484853745 0.013275147415697575 -0.0055110459215939045 -0.015462229028344154 0.00477445125579834 0.022971712052822113 -0.00033445871667936444 -0.02842528186738491 0.012215112335979939 0.024679185822606087 -0.012848096899688244 -0.024827446788549423 -0.031423650681972504 -0.017537053674459457 0.03185771033167839 0.021572208032011986 -0.003526598447933793 0.01698668673634529 0.02505207620561123 0.020439647138118744 0.02077345922589302 -0.010910239070653915 -0.00668772216886282 -0.00697643868625164 -0.004261621739715338 -0.012868966907262802 -0.018031014129519463 -0.03292351961135864 0.004753223620355129 0.003616197034716606 0.009997270070016384 -0.0242582056671381 0.004746764898300171 -0.034387487918138504 0.012532017193734646 0.008360045962035656 0.02384074404835701 -0.03169966861605644 0.01050732471048832 -0.022704342380166054 0.014650958590209484 0.03145279362797737 0.025196565315127373 0.004689885303378105 0.020333630964159966 -0.026198698207736015 0.015264826826751232 -0.027152255177497864 0.034948937594890594 -0.030308609828352928 -0.023494819179177284 0.022713985294103622 -0.0164784025400877 0.032689567655324936 -0.014859677292406559 -0.012093187309801579 -0.002645978005602956 0.029374465346336365 -0.027606582269072533 -0.03528575599193573 0.016619998961687088 -0.018554547801613808 0.011210067197680473 0.018663598224520683 -0.01053060032427311 0.03347292169928551 0.02264862135052681 -0.009961401112377644 0.008978763595223427 -0.01771506294608116 0.0077632879838347435 -0.015056543052196503 -0.023614415898919106 0.0348254032433033 -0.032813627272844315 -0.005500721279531717 -0.019473008811473846 0.03182940557599068 -0.001687880139797926 -0.02891620248556137 -0.012651550583541393 -0.029711639508605003 0.0027336522471159697 0.01731112226843834 0.014028818346560001 0.009999969974160194 0.028022440150380135 0.01224648579955101 0.01536524761468172 0.024098819121718407 -0.02292690984904766 -0.008377522230148315 -0.001824200269766152 0.024327101185917854 0.034800875931978226 -0.032211750745773315 -0.021004976704716682 -0.029961127787828445 -0.00978731270879507 -0.0014729670947417617 -0.024828452616930008 -0.008653688244521618 0.020453207194805145 -0.026862137019634247 0.030686993151903152 -0.017602453008294106 0.007894831709563732 0.03527778014540672 -0.019406814128160477 -0.014356273226439953 0.006845266092568636 -0.01260231714695692 -0.023173656314611435 0.002181270392611623 0.023915568366646767 -0.008262157440185547 0.0029936903156340122 -0.006583942100405693 0.009555160999298096 -0.01614173874258995 0.029796209186315536 -0.02480774000287056 -0.02135278657078743 0.017987972125411034 0.018332464620471 0.02371743880212307 -0.014124768786132336 -0.03196197748184204 -0.027555719017982483 -0.024534648284316063 0.005432554986327887 0.033847056329250336 0.000973561021964997 0.031246446073055267 -0.0033856930676847696 0.01341230608522892 -0.021540505811572075 0.019640378654003143 0.03194992616772652 -0.03188310191035271 -0.026204003021121025 0.0317545160651207 -0.017861366271972656 0.030397232621908188 0.030626405030488968 -0.02503005601465702 0.019523639231920242 -0.03481055796146393 0.002876162761822343 -0.03410555049777031 0.02257016859948635 -0.013572190888226032 -0.017999982461333275 -0.01925216056406498 -0.021226825192570686 -0.010754900984466076 -0.013384065590798855 -0.0067068724893033504 -0.009345544502139091 -0.006163989193737507 -0.03498632833361626 0.024975216016173363 -0.018569661304354668 -0.015597821213304996 0.01954369619488716 -0.008601146750152111 0.003926753997802734 0.030276790261268616 0.0026643830351531506 -0.03358912467956543 0.024891484528779984 -0.0312392208725214 0.02251272276043892 0.005742243491113186 0.03435163199901581 0.00717818783596158 0.023900611326098442 -0.003986405674368143 0.02929225191473961 -0.032900597900152206 -0.01604101061820984 0.024129869416356087 0.015354621224105358 -0.003737492486834526 0.005569207016378641 0.0039353459142148495 0.01603095978498459 0.0029837065376341343 -0.019445961341261864 0.020914878696203232 0.017562229186296463 0.008410854265093803 -0.03495585918426514 0.020397324115037918 -0.015466371551156044 -0.012246702797710896 -0.035454779863357544 0.0025783181190490723 -0.0183205958455801 -0.023839903995394707 0.01945587247610092 0.029369095340371132 0.010441129095852375 0.011629296466708183 -0.032431550323963165 0.0349515862762928 -0.013985911384224892 0.006875072605907917 -0.01895926333963871 -0.027707437053322792 0.005113938357681036 0.02337651699781418 0.03219353035092354 -0.012631012126803398 0.017925012856721878 -0.02572191320359707 0.009206725284457207 0.022182371467351913 0.004149705171585083 -0.012177634052932262 0.01907476782798767 -0.009247337467968464 -0.02053927630186081 -0.0034799023997038603 0.011413289234042168 0.014942769892513752 -0.018557004630565643 -0.012734801508486271 0.015316329896450043 -0.0012076923158019781 0.003893856657668948 0.00946055632084608 -0.006647961679846048 0.031075675040483475 0.021023551002144814 0.004400653764605522 -0.0005637535359710455 0.017590651288628578 0.024400657042860985 0.014703912660479546 0.017798982560634613 -0.03231486305594444 0.0017620028229430318 -0.031990040093660355 0.02561488375067711 0.01972653716802597 -0.02657795138657093 0.018909364938735962 0.027695294469594955 0.00248901778832078 -0.030108146369457245 -0.009716341271996498 0.007928389124572277 0.01034882664680481 -0.0010308921337127686 0.03126480430364609 0.03451385349035263 -2.384611616434995e-05 0.016305796802043915 -0.02437976561486721 -0.0027763801626861095 -0.030347349122166634 -0.004025170113891363 -0.030634477734565735 0.0050757573917508125 -0.018276214599609375 0.029092274606227875 -0.011139074340462685 0.03365827724337578 -0.003141978057101369 -0.027971098199486732 -0.02914200723171234 0.008685048669576645 -0.0037958326283842325 -0.00912773609161377 -0.033518511801958084 -0.024424953386187553 0.028367992490530014 0.0037736680824309587 0.005897155962884426 -0.01909559592604637 -0.00024268032575491816 0.026286620646715164 0.0265336986631155 0.015593874268233776 0.009682072326540947 0.010944695211946964 -0.012930772267282009 -0.01671159267425537 -0.02694053016602993 -0.005940292961895466 -0.01926618441939354 0.014381729066371918 -0.01950696110725403 0.0014719964237883687 0.003594862762838602 0.014518657699227333 0.014483247883617878 0.03375881165266037 -0.015218568965792656 -0.03119238093495369 -0.03469958156347275 0.034064311534166336 -0.01461794227361679 -0.011353318579494953 0.020641004666686058 0.03179286792874336 -0.028192982077598572 -0.018142500892281532 0.016980687156319618 -0.02888502925634384 -0.02860725112259388 -0.01789630390703678 0.0061736577190458775 -0.016303714364767075 0.0115962540730834 0.03064819797873497 -0.0017884587869048119 0.015446387231349945 -0.033477939665317535 -0.004466448910534382 -0.03510105609893799 0.0028437378350645304 0.01585088111460209 0.0071435957215726376 0.023389073088765144 0.00020265580678824335 -0.01692262850701809 -0.025522364303469658 0.016528261825442314 -0.02128475531935692 0.008374849334359169 0.034437596797943115 0.010193675756454468 -0.005521778948605061 0.020707616582512856 0.018340421840548515 -0.03420526906847954 -0.020405493676662445 0.011464519426226616 -0.027938570827245712 -0.02165953256189823 0.0014462003018707037 0.03152790293097496 0.01606287807226181 -0.018265435472130775 0.003596340073272586 -0.013350678607821465 -0.012100773863494396 0.030903957784175873 0.03414209559559822 0.030218904837965965 -0.02644767239689827 -0.023736605420708656 -0.004667128901928663 0.01949630118906498 0.009721437469124794 0.0007154473569244146 0.009009544737637043 -0.030551251024007797 -0.03531273826956749 0.01960590109229088 0.030672065913677216 0.028732769191265106 -0.03018401935696602 0.00222889450378716 0.002030053408816457 0.021529169753193855 -0.03375600278377533 0.02917039580643177 0.033769942820072174 -0.005411527119576931 -0.006820351351052523 -0.005448660813271999 0.03300744295120239 -0.029679635539650917 0.023930354043841362 0.01885797455906868 0.00012761354446411133 -0.00801166519522667 -0.008936682716012001 -0.02657805196940899 0.011338213458657265 0.018732067197561264 0.012936822138726711 -0.002667712513357401 -0.026525022462010384 0.00927466619759798 -0.007530868519097567 0.03222864866256714 0.017327314242720604 0.013632864691317081 -0.018279893323779106 -0.03146229311823845 -0.01621391996741295 0.03527919203042984 -0.01707295887172222 0.02267908677458763 -0.021061085164546967 0.006212277337908745 0.02650599554181099 -0.0030300321523100138 -0.006552556063979864 0.00209870096296072 0.0004861823399551213 -0.021225325763225555 -0.02652289718389511 -0.008978192694485188 0.020706040784716606 0.0036995753180235624 -0.0070980023592710495 -0.004090564791113138 0.00597649859264493 0.02779231406748295 -0.027487747371196747 -0.03367137536406517 0.00019159488147124648 -0.01147168967872858 -0.009996440261602402 -0.0013461114140227437 -0.007747539784759283 0.023272907361388206 0.022484494373202324 0.021275678649544716 0.020696576684713364 -0.03210648521780968 -0.029541566967964172 -0.0007331073866225779 0.031496211886405945 0.003425657982006669 0.023688100278377533 -0.035191357135772705 0.027518996968865395 -0.007338575087487698 0.012877601198852062 -0.024488812312483788 0.013909881003201008 0.00942593440413475 0.028969723731279373 0.017076611518859863 0.026101691648364067 -0.026638027280569077 -0.030537597835063934 -0.011526091024279594 -0.014606655575335026 -0.01919599622488022 -0.03530533239245415 -0.01092899776995182 0.0194192286580801 0.025036629289388657 0.01009070873260498 -0.018831845372915268 -0.0005441989633254707 0.0186973474919796 0.03269439563155174 -0.00573638966307044 -0.01562150102108717 0.00102996826171875 -0.004964960739016533 -0.011149679310619831 0.022646350786089897 0.02140793390572071 -0.019563879817724228 -0.009293705224990845 -0.026786141097545624 -0.029966359958052635 0.017399443313479424 -0.004011554643511772 -0.02976047247648239 0.02578081004321575 0.02729209139943123 -0.01347032655030489 -0.0005615779664367437 -0.010368198156356812 -0.002487093210220337 0.002674038987606764 0.0012766591971740127 -0.030745835974812508 -0.020376218482851982 0.01913684606552124 -0.034316569566726685 0.025917181745171547 0.018263494595885277 0.006579671986401081 0.033319663256406784 0.023175900802016258 0.03205491602420807 0.022375430911779404 0.022977234795689583 0.018482834100723267 0.0156827624887228 0.010125403292477131 0.0034848495852202177 0.02419009432196617 0.013124764896929264 -0.0042104595340788364 0.012692243792116642 0.01773531176149845 -0.015561841428279877 0.012318504974246025 0.0016270749038085341 -0.01553061231970787 0.0019988843705505133 -0.0029340984765440226 0.01233768556267023 -0.03268417343497276 -0.00803053006529808 -0.020659545436501503 -0.014188183471560478 0.02467815950512886 0.0008217437425628304 0.0025454291608184576 -0.009320825338363647 0.023473795503377914 0.005298725329339504 0.019267577677965164 0.03308122232556343 -0.01589990220963955 0.015941334888339043 -0.03414854034781456 0.02463025413453579 0.034438926726579666 -0.03018050640821457 -0.01573464833199978 0.005101059563457966 0.00574167724698782 0.005889939609915018 -0.02177080698311329 0.013722156174480915 0.004778193775564432 -0.00017509717145003378 0.026703985407948494 0.02569110505282879 0.02548706717789173 -0.0004128388245590031 -0.02200237102806568 -0.016128893941640854 0.013421301729977131 -0.02273113839328289 0.034508273005485535 0.0032496964558959007 0.03455936163663864 0.030772019177675247 -0.029878059402108192 -0.01062517985701561 -0.00019545640680007637 -0.03114781342446804 -0.02627483569085598 0.030823010951280594 -0.03133320063352585 0.025565901771187782 -0.01744902692735195 -0.006430021487176418 0.03355748951435089 0.02884860709309578 -0.028751477599143982 0.030976364389061928 -0.006122014485299587 0.0227372907102108 -0.014492244459688663 -0.03468969464302063 0.02434428408741951 0.014043319039046764 -0.004438660107553005 -0.028494900092482567 0.024357328191399574 -0.026261331513524055 -0.026420406997203827 -0.03170837089419365 -0.007997176609933376 0.02596057765185833 -0.006976868957281113 -0.031705260276794434 -0.010782233439385891 -0.01800193265080452 -0.034644968807697296 0.0291008111089468 0.0031630441080778837 -0.011450043879449368 -0.008162209764122963 0.0021735813934355974 -0.011437089182436466 -0.03170081228017807 0.019020698964595795 -0.01764392852783203 0.0293069239705801 0.016077080741524696 0.013044285587966442 0.035593222826719284 0.018708473071455956 -0.02859742008149624 0.010172277688980103 0.016829393804073334 -0.029647352173924446 0.009067646227777004 -0.032197318971157074 -0.031534213572740555 0.03246472030878067 -0.01013465877622366 0.024954861029982567 -0.018228208646178246 0.032275065779685974 -0.006084335967898369 0.0035679086577147245 0.02611343376338482 -0.021502921357750893 0.007279864512383938 -0.034179043024778366 0.03541059419512749 -0.026175571605563164 0.012283985503017902 0.02432631328701973 -0.015912389382719994 0.02981289103627205 -0.0010525074321776628 -0.015389357693493366 -0.020961148664355278 0.021293867379426956 0.015309368260204792 0.026588283479213715 0.0036471914499998093 -0.00484121311455965 0.024392690509557724 -0.006919537670910358 0.025456536561250687 0.023087123408913612 -0.014038290828466415 -0.026686687022447586 -0.016535211354494095 -0.006836120970547199 -0.0039023077115416527 -0.011658507399260998 -0.021563850343227386 -0.007008450571447611 -0.01274952758103609 0.014341491274535656 0.03364250808954239 -0.0009550410322844982 -0.03251538798213005 -0.032632436603307724 -0.03365514799952507 -0.024958718568086624 0.017624059692025185 -0.017244242131710052 0.010610819794237614 0.013803832232952118 0.0025436326395720243 -0.03204485774040222 0.03343953937292099 0.0044359141029417515 0.025880593806505203 0.029117103666067123 0.017137426882982254 -0.002197006018832326 0.009385845623910427 -0.02021942101418972 -0.03127583861351013 0.02343943901360035 -0.032500941306352615 -0.00126684142742306 -0.0010229647159576416 0.014287655241787434 -0.005547621753066778 -0.007095661014318466 -0.006868656724691391 -0.0272664912045002 -0.012521561235189438 0.021149415522813797 -0.015255124308168888 0.011019797064363956 -0.008613748475909233 0.0006686534616164863 0.02684631198644638 -0.008043459616601467 0.012900264002382755 -0.007689540274441242 -0.007448183838278055 0.027642540633678436 0.005858621560037136 0.008591013960540295 0.018535103648900986 0.02099904604256153 0.0007892081048339605 0.0092078922316432 0.03246202692389488 0.023888686671853065 0.0005382171948440373 0.024834387004375458 -0.010498988442122936 8.758903277339414e-05 0.002124309539794922 0.03210066258907318 -0.03513041138648987 0.002588766161352396 0.01246106717735529 -0.030798414722085 0.010212413035333157 -0.0018012779764831066 -0.03070668876171112 0.006579012144356966 0.020294547080993652 -0.03069722279906273 0.03507783263921738 0.03007393702864647 -0.01994565688073635 0.029651548713445663 0.0005242782062850893 -0.0334867388010025 -0.009710947051644325 0.01974838599562645 -0.016851766034960747 0.013744848780333996 -0.017609406262636185 0.013453526422381401 -0.03517546504735947 -0.009438974782824516 -0.0054832869209349155 -0.029164370149374008 0.001998471561819315 0.025395680218935013 -0.004877601750195026 -0.03133542090654373 -0.02570466510951519 -0.029041415080428123 0.002618832280859351 -0.021221404895186424 -0.028867075219750404 -0.03377578780055046 -0.03275191783905029 -0.014934297651052475 -0.011936447583138943 -0.00639697490260005 0.020443081855773926 0.010939667001366615 -0.006679858546704054 -0.02114776335656643 -0.006704496685415506 -0.013565417379140854 -0.017912453040480614 -0.011285016313195229 0.011504331603646278 0.0007881139172241092 -0.007107943762093782 -0.0009301986428909004 -0.004490924999117851 0.011462518945336342 0.021835817024111748 -0.030269764363765717 0.0023824828676879406 -0.0065312813967466354 0.030386947095394135 0.018262600526213646 -0.017193300649523735 -0.002571297576650977 0.030926795676350594 -0.0318472646176815 -0.0273624025285244 0.02367967925965786 0.015901975333690643 0.021876009181141853 0.007728768512606621 0.030820557847619057 -0.005086375400424004 -0.009802708402276039 -0.005421902518719435 -0.0006726256688125432 0.02496561035513878 -0.026512088254094124 0.011554897762835026 -0.026339421048760414 -0.02405567280948162 -0.011107100173830986 0.013784758746623993 -0.005413387902081013 -0.026535822078585625 0.033088020980358124 -0.010918783955276012 0.01399589516222477 0.035632118582725525 0.022814759984612465 -0.020731061697006226 -0.021328693255782127 0.03260403499007225 0.027296945452690125 0.024152198806405067 -0.016929060220718384 -0.017930394038558006 -0.027731645852327347 0.001776005607098341 0.0013827596558257937 -0.02728593535721302 -0.0341438427567482 0.03554929047822952 -0.026161743327975273 -0.02103758044540882 0.00920991413295269 0.017196277156472206 -0.033420782536268234 0.026672381907701492 0.03295471519231796 -0.014492742717266083 -0.0007130589219741523 0.0008151999791152775 -0.025603976100683212 -0.0074663423001766205 0.003678577486425638 -0.019558537751436234 -0.005546506028622389 0.0017044247360900044 0.0073715196922421455 -0.014875131659209728 0.01027705892920494 0.027544381096959114 0.02739274688065052 -0.016248732805252075 0.02953355386853218 0.023433499038219452 -0.019053030759096146 -0.005245422013103962 0.0112577173858881 -0.01515545230358839 -0.00620745774358511 -0.018408436328172684 0.01703590713441372 0.009795879013836384 0.02959749661386013 0.0331069715321064 -0.013298035599291325 -0.007886691018939018 -0.00826963409781456 -0.0301628727465868 0.013946891762316227 0.018991347402334213 -0.028683548793196678 -0.006592346355319023 0.0018077748827636242 -0.012083402834832668 0.02770799584686756 0.010274342261254787 -0.023412233218550682 -0.025467993691563606 0.009402352385222912 -0.007769857533276081 -0.003383572679013014 -0.03179873153567314 -0.0035543146077543497 0.02527197077870369 0.0011834800243377686 -0.030020149424672127 -0.02694576233625412 -0.0021825390867888927 0.02420262061059475 0.007193339988589287 -0.001366359880194068 -0.007669632323086262 0.014130239374935627 -0.035641949623823166 -0.01501536462455988 0.015266010537743568 0.020424315705895424 -0.027553364634513855 -0.008137103170156479 -0.020959118381142616 0.016078120097517967 0.0006519982125610113 0.019150977954268456 -0.02747906744480133 -0.0015791101614013314 0.03327242285013199 0.005185344722121954 0.03289150819182396 0.005530000198632479 0.03174583241343498 0.011810120195150375 -0.009676674380898476 -0.011130256578326225 0.0015992267290130258 -0.006303021218627691 0.014020157977938652 0.003237409284338355 -0.0006303957779891789 0.03134382888674736 -0.01048762071877718 -0.0352516770362854 -0.014095502905547619 -0.024822283536195755 0.0033213880378752947 0.02378091774880886 0.02027611806988716 0.016458559781312943 0.02556377276778221 -0.025219714269042015 -0.030433813109993935 9.182947542285547e-05 -0.008119715377688408 -0.007697497494518757 0.025228651240468025 -0.01986692287027836 0.021226292476058006 0.0339120551943779 0.01805177330970764 -0.01081955898553133 -0.008866182528436184 0.03262081742286682 0.03387566655874252 0.004907603841274977 0.0304375309497118 0.012492712587118149 -0.011360522359609604 0.03559057414531708 0.033926691859960556 0.026460815221071243 -0.021135373041033745 0.004269425757229328 0.019205596297979355 0.0336763858795166 -0.012414784170687199 -0.009321251884102821 0.021216001361608505 0.03336648270487785 -0.004425266291946173 -0.020639657974243164 -0.029142623767256737 -0.006496089044958353 0.002021048916503787 -0.030974172055721283 0.012723607942461967 -0.0033350461162626743 0.0054989163763821125 -0.02694293111562729 -0.02084268070757389 -0.025200439617037773 -0.007074922788888216 -0.029570959508419037 -0.01715477928519249 0.03065658174455166 -0.0015112630790099502 0.0017474464839324355 0.008135169744491577 -0.0017276705475524068 -0.01592533104121685 0.007753138430416584 -0.02924506738781929 0.01524397823959589 0.00298342970199883 0.0064098709262907505 0.0054320995695889 0.0015469066565856338 0.019839700311422348 -0.006696100812405348 -0.02096845582127571 -0.027632910758256912 -0.017294257879257202 -0.004782979376614094 -0.02398628182709217 -0.013503032736480236 -0.030457856133580208 0.02681962214410305 -0.021169088780879974 0.011133377440273762 -0.019506344571709633 0.030649501830339432 0.024506475776433945 0.014654871076345444 0.010966113768517971 -0.016139725223183632 -0.009859541431069374 -0.02423247881233692 0.03410746157169342 -0.011351930908858776 -0.028995340690016747 -0.02446446381509304 -0.030590489506721497 -0.032376475632190704 -0.007971849292516708 -0.020197708159685135 0.023450085893273354 -0.02336348034441471 0.0286122914403677 -0.01890970580279827 -0.025828324258327484 -0.0009539468446746469 -0.0012442044680938125 0.00716971093788743 0.02775934897363186 -0.004655604250729084 0.03344862535595894 -0.001895010587759316 0.0165170356631279 -0.03538148105144501 0.03132481500506401 0.028334716334939003 -0.014203349128365517 0.004944418556988239 0.006209595128893852 0.0073016248643398285 0.03531487658619881 0.004208385944366455 0.029591962695121765 0.01634497009217739 0.0015401628334075212 -0.024486036971211433 0.027364660054445267 0.020425325259566307 -0.022233376279473305 0.006081709172576666 -0.010229353792965412 -0.0021466570906341076 -0.030509546399116516 -0.01417304016649723 0.02265011891722679 -0.021922679618000984 0.02387569285929203 0.014527078717947006 -0.008166960440576077 -0.006562293041497469 -0.0007478722836822271 -0.0024246403481811285 0.004745828453451395 -0.02209506742656231 0.005349921528249979 0.03144322335720062 0.007638910319656134 -0.013940522447228432 0.03479184955358505 -0.026825936511158943 0.004989300854504108 -0.006917272694408894 -0.0331747829914093 0.018662547692656517 0.03141404315829277 -0.0032306783832609653 0.00046483962796628475 0.033361226320266724 0.03367038443684578 -0.0349075086414814 0.006309909746050835 -0.010381847620010376 -0.03202041611075401 0.03145097568631172 0.010350738652050495 0.02597372978925705 -0.023028643801808357 0.00838299747556448 0.034045975655317307 0.004273287020623684 0.015311331488192081 -0.0031310576014220715 0.01745428517460823 -0.016902439296245575 -0.020623037591576576 0.010346200317144394 0.0132270073518157 -0.02024207077920437 -0.031519368290901184 0.01970154047012329 -0.013847011141479015 0.013726942241191864 -0.03182801604270935 0.018102217465639114 -0.004782165866345167 0.0238064955919981 0.0019336300902068615 0.023093262687325478 0.030904890969395638 -0.013081112876534462 0.013074935413897038 -0.031815510243177414 -0.016513651236891747 0.02432752214372158 -0.016940338537096977 0.02870895341038704 0.031156953424215317 0.01682923547923565 0.03521794080734253 0.013317602686583996 -0.0040231733582913876 0.014213907532393932 0.03335070237517357 0.004751282278448343 -0.03374006971716881 -0.022421183064579964 -0.007919303141534328 -0.02883688174188137 0.023139681667089462 0.03372801095247269 0.017311284318566322 -0.010257470421493053 0.01524205319583416 -0.012244719080626965 0.01841295324265957 -0.011409644968807697 -0.026963090524077415 -0.02535681240260601 -0.030492596328258514 0.0008635479025542736 -0.03371400386095047 -0.014424473978579044 -0.033813439309597015 -0.0092308996245265 0.01939830183982849 -0.011821415275335312 0.02560296282172203 -0.0282044168561697 0.00016329545178450644 -0.007129384204745293 -0.0013844285858795047 0.015730198472738266 -0.006852571852505207 -0.006196111906319857 -0.009559116326272488 0.0011630740482360125 -0.027218367904424667 0.028485950082540512 0.005358964670449495 -0.013839194551110268 0.006307853385806084 0.01585017889738083 0.02655121311545372 -0.009732340462505817 -0.02820868231356144 -0.00761052593588829 0.016523247584700584 0.003198768477886915 -0.020993361249566078 -0.030995046719908714 -0.01692550629377365 -0.0026351597625762224 -0.02315611205995083 0.023729922249913216 0.02079472877085209 0.01225848775357008 -0.007794827688485384 0.012053443118929863 0.004903325345367193 -0.01592865213751793 -0.021201573312282562 -0.014025203883647919 -0.022123852744698524 0.007602215278893709 0.03529280051589012 0.034690793603658676 0.024694252759218216 -0.018245365470647812 0.0028233530465513468 -0.015657126903533936 0.00923748966306448 0.02656273916363716 -0.019285811111330986 -0.032958175987005234 -0.02308124490082264 -0.027158385142683983 0.013795887120068073 -0.0035289954394102097 0.0053834873251616955 -0.03217832371592522 0.0019685670267790556 -0.0013739637797698379 0.015261556953191757 -0.004322324879467487 -0.005726669915020466 -0.0042328923009335995 -0.021450741216540337 0.022882036864757538 0.03194784000515938 -0.005033237859606743 0.01359630562365055 0.03159724548459053 0.014241325668990612 0.019556310027837753 0.007561513688415289 0.009299478493630886 -0.01814950443804264 -0.018486429005861282 0.024366576224565506 -0.016716569662094116 0.035395681858062744 0.007773097604513168 0.023337867110967636 -0.004427965264767408 0.027065129950642586 -0.029907040297985077 0.03433295711874962 0.008669338189065456 0.029290715232491493 -0.0037447428330779076 -0.01492010336369276 0.03304214030504227 -0.0008179247961379588 0.033265888690948486 -0.026612039655447006 0.012890603393316269 -0.02249402366578579 -0.03178168833255768 -0.015513871796429157 -0.023552482947707176 0.024140652269124985 0.035412393510341644 -0.006663910113275051 -0.02428879588842392 -0.0016633911291137338 -0.022099776193499565 0.004026000387966633 -0.024898793548345566 -0.03008154220879078 0.006191526539623737 -0.0033864337019622326 -0.028202509507536888 0.018518781289458275 0.0307276863604784 0.021713845431804657 0.03488346189260483 -0.025469573214650154 -0.03344643861055374 -0.013139010407030582 -0.03167569637298584 -0.018771925941109657 -0.008500984869897366 0.009295208379626274 -0.02305443026125431 -0.033090364187955856 0.019721845164895058 -0.006933489348739386 0.016767580062150955 -0.005660393740981817 0.0019722157157957554 -0.01264019962400198 -0.00914736744016409 -0.02601376734673977 0.00025726217427290976 0.03504296764731407 -0.02253248170018196 -0.008983412757515907 -0.027726689353585243 -0.02857731655240059 